0.43311 -0.725171 0.047722 0.0639702 -0.853376 -0.691451 0.775563 0.880119 0.167868 -0.64473 0.0246018 -0.516469 -0.291504 0.698346 -0.906557 -0.503549 0.846964 0.91535 0.286923 0.322097 -0.517672 -0.508346 0.230148 0.0933084 0.23517 0.502298 0.114003 0.0456567 -0.648576 -0.614337 0.843647 -0.831362 -0.696526 -0.517947 0.863546 -0.377795 0.397239 0.396957 -0.338012 -0.962914 0.305947 0.0588335 0.814665 0.0690178 -0.0178812 -0.529316 -0.21344 0.71513 -0.808755 -0.752689 -0.449018 -0.645031 0.958843 -0.717525 0.56281 -0.855244 -0.0907823 0.221835 0.372316 -0.492208 -0.53909 -0.479273 0.859636 -0.104662 0.9525 0.672472 0.229578 0.517558 0.59447 -0.743936 0.669991 0.544269 -0.468069 -0.831346 -0.430195 -0.287017 0.112661 -0.513806 0.466328 -0.421932 0.590278 0.803401 0.762638 -0.341918 -0.609638 -0.191841 -0.267153 -0.0403947 -0.913999 0.412709 0.404785 -0.783413 -0.814423 -0.00368857 0.00655425 0.157877 -0.562034 -0.101329 0.968502 -0.391864 -0.062452 0.370079 -0.080976 -0.963344 -0.922503 -0.505371 0.227875 -0.110127 -0.90389 0.328273 -0.715065 -0.0950989 -0.327779 -0.980766 0.265208 -0.645106 -0.296757 0.412048 -0.710241 0.986791 0.995785 0.161654 0.910447 -0.116465 0.579929 0.870045 0.85434 0.887935 
-0.304651 -0.271677 -0.0785027 0.605383 0.676232 -0.576435 -0.138231 0.746112 -0.0883205 -0.402593 -0.381561 -0.902623 -0.390451 -0.318453 -0.237514 0.103344 0.210106 -0.750776 -0.286757 0.475361 -0.615334 0.0747113 -0.326993 0.228032 0.536391 -0.874678 -0.709605 -0.338354 -0.722699 -0.403085 -0.655615 -0.915324 0.151713 -0.155223 -0.826441 0.0136397 -0.75756 -0.306751 0.42739 -0.850376 -0.267641 -0.247611 0.406011 -0.175674 -0.559858 0.459868 -0.992676 0.0949827 0.374834 -0.169661 0.516323 -0.156913 0.756936 -0.173649 -0.521022 -0.81505 -0.545119 0.181251 0.282149 0.0714769 -0.686606 0.212926 0.650021 0.904022 -0.110499 0.841167 -0.51354 0.932962 0.298366 0.63734 -0.227908 -0.450695 -0.830933 0.505549 0.763911 -0.9396 0.150405 -0.142343 -0.35309 -0.376743 0.0732193 0.596083 0.371851 -0.301563 -0.364081 0.884503 -0.166901 0.8939 -0.216557 0.331253 -0.635396 0.902107 -0.279115 0.912091 -0.490884 -0.283181 0.581172 -0.240796 0.94469 -0.592333 0.662306 -0.618936 -0.456166 -0.781881 0.921794 0.595766 -0.96315 0.334394 0.155938 0.849074 0.390372 0.985356 0.879908 0.619705 -0.616362 0.795732 -0.140278 0.353743 -0.638368 0.946236 -0.611589 -0.971587 0.544046 -0.214927 -0.284344 -0.966985 -0.120375 0.863284 
-0.786342 -0.0495952 0.452597 0.794577 0.448855 -0.089956 0.108788 0.392841 0.479388 -0.918007 -0.948554 -0.339328 0.921457 0.928817 0.62906 0.610278 0.933814 0.61674 -0.453101 0.731469 -0.199741 0.960981 -0.787227 -0.922546 0.77537 -0.357931 0.249553 0.231686 -0.0463796 0.497793 0.410582 0.647011 0.320945 0.118685 0.746969 0.299818 -0.96519 0.0436578 -0.244393 0.488617 0.190958 -0.568262 -0.7816 -0.355383 -0.925979 -0.931472 0.756503 0.545354 -0.229936 -0.535973 -0.10125 0.29601 -0.952239 -0.287701 0.605456 -0.102166 0.893841 0.785299 0.527904 0.484233 0.498883 0.718494 -0.266697 -0.373057 0.0262887 -0.165243 0.766027 0.623735 -0.878761 0.665924 0.192376 -0.739253 -0.625738 -0.786053 0.799889 -0.261585 -0.45721 -0.335301 0.604431 0.665249 0.836565 0.13936 0.231127 0.54933 0.586956 0.965747 -0.68991 0.684194 -0.742953 -0.816589 -0.405807 -0.395186 0.104809 -0.476738 -0.534721 0.935624 -0.969426 0.862344 -0.582898 -0.764277 0.804806 0.375906 -0.156724 -0.0566202 0.384491 0.141067 0.916962 -0.626545 -0.337709 0.121283 0.410032 -0.589341 0.947965 0.452854 -0.875422 0.782448 0.599391 -0.0365247 0.129077 -0.599102 0.89227 0.386972 -0.168427 -0.75632 0.521205 -0.107763 0.835737 0.230541 
0.694021 0.416463 -0.502595 0.883366 0.737087 0.215418 0.532711 -0.727335 -0.318458 -0.316247 0.833195 -0.48475 0.809324 0.307825 -0.380816 -0.373154 0.40072 0.910009 0.518186 -0.843266 -0.76504 -0.0329126 0.83741 0.343595 0.793584 -0.239312 -0.115614 0.880271 0.716541 0.899055 0.408985 -0.183708 0.424894 -0.804708 -0.733198 -0.850772 -0.919883 -0.473701 0.505462 -0.697506 -0.99078 -0.0314084 0.118523 0.0206684 -0.625606 -0.567966 0.187503 -0.646011 0.493978 0.292989 0.265346 -0.325981 -0.756298 0.892331 -0.585849 -0.359885 -0.580204 0.516419 -0.538921 0.353106 0.64824 0.972651 -0.647456 0.201226 -0.00297147 0.0582551 -0.906766 -0.0160708 -0.101582 0.713117 -0.644185 -0.810657 -0.714251 -0.414371 -0.327971 -0.209409 0.455314 0.468908 0.929721 -0.187471 -0.819213 -0.516914 0.218677 -0.701832 0.311313 0.2375 -0.333705 -0.588048 0.683295 0.145783 0.180535 0.259624 -0.491006 -0.335928 0.0608711 -0.938333 -0.563812 0.0200353 0.733161 0.236856 0.832705 -0.718983 0.0608895 -0.630131 -0.605714 -0.242377 0.375356 0.610665 -0.554537 -0.101996 -0.24656 0.0623312 -0.399472 0.0694349 0.992088 0.0259948 0.895176 -0.782808 -0.652947 -0.0749238 0.755101 0.977762 -0.760598 0.623669 0.00458837 -0.882612 -0.0637843 -0.0227756 
-0.789638 0.55516 0.568137 0.678342 0.890198 -0.448308 -0.704981 -0.623885 0.362912 -0.540225 0.431962 -0.0148548 0.335134 0.603935 0.331872 -0.23257 -0.806817 -0.173643 -0.415256 0.786619 0.705205 0.379134 0.098595 -0.914079 -0.925662 0.39071 0.66165 0.343817 0.536576 0.234019 -0.847853 0.140464 0.778902 -0.994247 -0.315132 -0.417407 0.648171 -0.188453 0.66937 0.106835 -0.419243 -0.223553 0.746269 0.538757 0.886753 -0.34306 0.187159 -0.411869 -0.288378 -0.771189 0.622855 0.329339 -0.805968 0.0885847 0.842211 -0.966585 0.600113 0.098887 -0.00738376 -0.0986128 0.613828 0.609958 -0.433291 -0.315311 0.573887 -0.6868 0.946325 0.881855 -0.667778 0.662838 0.320547 -0.574566 -0.737132 -0.972619 -0.813714 -0.0875874 -0.081806 -0.913972 0.865527 0.918131 -0.970681 -0.23509 0.843134 0.547157 0.0652819 -0.807245 0.63012 0.430075 0.271335 0.330003 0.363074 0.192195 0.219936 0.471283 0.855693 -0.370467 -0.447406 0.454289 -0.768217 0.580527 0.915504 0.866933 0.543185 -0.689578 0.259543 0.146564 -0.697163 0.775173 0.329401 0.249965 -0.833039 -0.887719 0.109214 -0.444215 0.0723063 -0.747764 0.328987 -0.715096 -0.624521 -0.332996 -0.658391 0.418384 -0.217648 -0.00987494 0.0319395 0.807122 -0.697878 0.760146 
-12.2749 11.9208 -11.5938 -12.1966 12.1622 -11.3225 12.2666 -11.2389 -10.914 9.65117 -10.1775 -11.2602 10.6771 -10.4275 9.67713 -9.78525 16.9722 -16.7957 16.2072 16.5189 -16.8967 17.6625 -16.5207 16.9902 4.61458 -3.69493 3.37807 3.65366 -4.7727 5.06836 -4.54077 4.08522 4.54878 -2.93661 4.10834 3.12169 -3.50423 2.74512 -3.33118 2.96784 -7.59504 7.43947 -8.29443 -7.84041 7.09625 -8.06118 8.73244 -8.51264 17.1784 -17.6021 18.236 17.2181 -16.7566 17.5026 -18.2479 18.2482 0.459571 0.128509 0.452806 0.58958 -0.721745 0.161291 -1.57696 -0.174118 3.18141 -4.36816 3.61807 3.88621 -3.94576 3.11292 -3.48178 3.66158 -3.88418 4.09958 -2.9072 -3.32382 4.5628 -4.09319 3.04544 -3.27129 14.5163 -15.3793 14.9087 15.3889 -15.3508 14.2281 -14.1792 14.9902 -0.946146 1.11761 -0.998912 -0.612287 1.73224 -0.427468 0.471983 -0.145155 -2.42011 1.86121 -1.71347 -1.3773 1.47474 -2.53858 1.72547 -2.82642 -1.54771 0.708529 -1.17971 -1.72489 1.6882 -0.897122 2.26356 -2.01412 -3.35232 4.65046 -3.92109 -4.00495 3.69417 -3.02597 4.65865 -3.72232 -6.10415 6.69876 -6.98243 -5.52101 6.61173 -6.90426 6.24879 -5.61558 
-0.112058 0.634209 -0.847876 -0.246253 -0.766286 -0.964428 0.86455 0.487858 -0.563144 -0.757029 0.60598 0.71283 0.535382 0.171794 -0.655508 0.879075 0.609628 0.0106289 0.641206 0.754765 -0.671155 -0.105324 -0.185785 -0.487631 0.380768 -0.425292 0.114133 0.235021 -0.00464511 -0.0702952 0.548851 0.541166 0.181038 -0.131745 -0.438002 0.155801 -1.4972 -0.0483411 -0.117943 1.46053 0.698969 0.0567861 -0.0274695 2.89678 -0.782241 1.93311 1.24724 1.71309 -1.45686 2.17479 -2.25224 -1.92919 1.03892 -2.33562 1.32044 -2.45167 -0.599024 0.207507 -0.424655 0.817178 0.31565 -0.879013 0.421418 0.777581 0.80394 -0.186385 -0.572988 -0.211469 -0.156475 0.125432 0.127736 0.867403 0.449555 -0.322165 -0.620658 0.600136 0.48695 0.162304 -0.164317 0.32197 -0.659342 0.439004 0.34494 -0.597992 -0.453813 0.758877 0.448865 0.0736151 -0.75144 0.544075 0.267146 -0.0827454 -0.701559 0.893151 -0.80596 0.223699 -0.289415 -0.196303 0.735991 -0.207526 0.104009 0.0796415 0.5343 -0.0168915 0.104865 0.464555 -0.221866 -0.901065 -0.200759 -0.156478 0.0763602 -0.614195 -0.777967 0.713228 -0.772743 0.505244 -0.369608 0.00517488 0.973839 -0.688775 -0.236056 0.600005 0.286284 -0.422193 0.197556 0.325974 0.652239 0.181237 
0.0574849 0.147731 0.907015 0.202239 -0.966296 -0.538381 -0.573252 -0.649396 -0.396166 -0.361309 -0.51227 0.270963 0.0808665 -0.8777 0.499371 0.931799 0.749692 0.0762671 -0.179265 -0.915613 -0.705472 -0.874224 0.909709 -0.513934 0.305092 -0.319052 -0.308235 -0.513229 0.155561 0.516696 0.113683 0.674325 -0.611032 0.385777 -0.245694 0.620395 0.986386 0.19741 -0.138017 0.347322 -0.55356 0.319151 -0.0271584 -0.451535 -0.948373 0.697163 -0.784424 0.192933 0.624544 0.708583 -0.843156 -0.918972 0.837479 -0.490402 -0.180588 0.86401 -0.584359 0.67437 0.131957 -0.205843 0.389963 0.112019 0.711303 0.868804 -0.00442135 -0.309646 -0.228568 0.454534 -0.640934 -0.177669 -0.084205 0.765904 0.542438 0.751087 -0.479828 -0.471807 0.338233 0.682005 0.450978 -0.409726 -0.271975 0.9222 -0.576776 0.130941 0.726896 0.936924 0.872907 0.939912 -0.890975 -0.622496 -0.291921 -0.313502 0.969063 -0.957442 0.26887 0.895404 -0.941047 -0.17273 0.932003 0.179958 0.562659 0.611031 -0.397391 -0.956384 0.0613064 0.376818 -0.82399 -0.797415 -0.161533 -0.88168 -0.395017 0.942901 -0.665548 0.134477 0.150264 -0.520588 0.470001 -0.699631 -0.694269 -0.580953 -0.0698537 -0.0313595 0.941216 -0.990118 -0.905348 -0.183399 -0.386035 -0.0942625 
-0.270054 -0.805703 0.544935 0.721855 0.215083 0.90253 0.829404 -0.20877 -0.800051 -0.458658 -0.657966 -0.428956 0.534616 -0.705025 0.643207 0.375203 0.0437723 -0.318292 0.46443 -0.316828 -0.936195 -0.633404 0.376209 0.94225 0.390809 0.319165 0.205817 -0.834658 -0.0891418 -0.20571 0.6307 0.169992 -0.951321 -0.846525 0.452253 -0.980846 0.927322 -0.503838 -0.00416452 0.00659621 0.861593 0.789725 0.906822 0.953764 -0.0929451 -0.128254 0.433791 0.718906 0.652283 0.923929 0.467428 0.0703856 0.969934 -0.317999 -0.61535 -0.192481 0.97292 -0.137668 0.220887 0.451837 0.0237733 -0.441552 0.835867 0.417619 0.928918 0.323751 -0.723229 0.687861 0.881706 0.833419 -0.72216 0.653276 -0.388687 -0.660693 -0.26163 0.781221 -0.0143892 0.161738 0.338212 0.322226 -0.341143 0.413612 -0.418539 -0.387703 -0.130571 -0.510066 -0.684139 -0.318853 -0.95952 -0.65059 -0.461599 -0.0994569 0.428158 0.0551349 0.651175 0.305372 0.38325 -0.722061 0.321295 -0.00297552 -0.00958389 0.923686 0.396996 0.319075 0.686703 -0.582412 -0.59339 0.886383 -0.555616 -0.245993 -0.405417 0.154201 -0.338713 -0.741334 0.407077 -0.260489 -0.0397757 -0.509201 -0.148693 0.922798 -0.530926 0.720424 0.162412 -0.340241 -0.428824 0.761891 -0.892049 -0.660571 
-0.218353 0.140799 0.400708 0.70358 -0.922514 -0.689244 -0.12092 -0.301567 -0.430089 -0.505203 -0.942188 0.638688 0.424563 -0.370525 0.590311 -0.642915 0.534998 -0.287794 -0.947405 0.959137 0.219443 0.178024 0.0492603 -0.0837634 0.188401 0.454562 -0.183764 -0.529312 -0.154914 0.35471 -0.392156 -0.967003 -0.415617 0.731764 0.758484 -0.167172 0.341333 0.778232 -0.262247 0.417465 0.331174 0.0380346 -0.752983 0.618773 -0.28527 -0.537625 0.134737 0.518724 0.189695 0.203901 0.961805 -0.939828 0.305999 0.917668 -0.754616 -0.825346 0.412996 -0.783751 -0.508169 -0.796865 -0.910185 0.517702 -0.989389 -0.661056 -0.366151 0.0956963 0.367931 -0.189261 -0.910366 -0.529354 -0.859522 0.00764334 0.460687 0.76162 0.549999 -0.163781 -0.668314 -0.357632 -0.714085 0.37681 -0.954283 -0.638512 0.521063 -0.489076 0.0960141 -0.289633 0.135681 0.39467 -0.776301 0.71208 -0.0725855 0.056607 -0.605351 -0.137449 -0.0991539 -0.480178 -0.353731 0.850478 -0.00910175 -0.972969 -0.692538 0.513622 0.446795 -0.712468 -0.441458 0.411566 -0.816418 0.459646 -0.727889 0.370214 0.178763 0.468378 0.0245959 -0.61818 0.243402 0.851578 0.476328 -0.346567 -0.746622 -0.476482 -0.238937 0.186007 0.213453 -0.501345 -0.105024 0.86767 0.936022 -0.285112 
0.13029 -0.211739 -0.694204 0.515866 0.161928 -0.479086 0.00530386 -0.858398 0.910861 0.837296 0.430845 -0.778763 -0.668846 0.709444 -0.367018 -0.47068 -0.711059 -0.770088 -0.866701 -0.649488 0.0545573 0.944302 0.880569 -0.274552 -0.390383 0.837611 -0.264676 -0.412093 -0.0496216 0.00935817 -0.716517 -0.502962 0.718473 -0.630936 -0.141717 0.154594 0.257618 -0.221202 0.263204 -0.335199 0.302001 -0.262352 0.65337 -0.812425 -0.42401 -0.327319 0.752391 -0.561705 -0.582298 -0.687904 0.391662 0.672178 -0.698374 0.433876 0.147297 -0.386003 0.451282 0.703006 -0.581114 -0.788969 -0.205094 0.984125 0.194548 -0.226642 0.826495 0.902953 -0.0628441 -0.220334 0.84146 0.418153 -0.108293 -0.0751167 -0.48583 0.65354 0.0530595 -0.230561 0.960507 -0.757507 0.572463 -0.61749 -0.14848 0.488179 0.82384 0.281003 0.816511 -0.897565 0.6181 0.407254 0.718368 -0.389928 0.477322 0.34722 -0.276832 -0.723345 0.748158 0.293217 0.0991558 0.511844 0.555621 0.328655 -0.292464 0.549212 0.601406 -0.171105 0.239849 -0.854275 0.208915 -0.76216 0.37506 -0.373856 0.606648 -0.0644382 0.988219 -0.99797 -0.877734 -0.0820968 0.200291 0.296674 0.206066 -0.653936 -0.70732 0.0677214 0.192771 -0.0960586 -0.457331 -0.365257 -0.877831 0.29041 
0.917247 0.169924 -0.0888678 0.399044 0.729883 -0.86022 0.274898 0.216348 0.154958 0.377729 0.487597 -0.953314 -0.353137 0.822916 0.755928 0.884625 -0.10794 -0.144795 0.431606 0.00795913 -0.230577 0.684847 0.218519 0.641804 0.807564 0.723883 0.307718 -0.181632 -0.692055 0.638505 -0.650746 0.907927 -0.476203 0.456947 -0.0888051 -0.548388 -0.75299 0.499562 0.131141 0.0821072 -0.0240728 -0.591837 -0.996631 -0.379693 0.494438 0.017318 -0.936192 -0.585976 -0.504795 -0.0894978 -0.189392 0.888624 -0.901514 0.255717 -0.168958 0.330509 0.869649 0.192581 0.711894 0.803472 -0.040757 0.996663 0.910493 0.66143 0.646844 -0.49456 -0.0744479 0.75473 0.749459 0.152219 0.352213 -0.356898 -0.377817 0.0261439 -0.598805 -0.119969 -0.317569 0.614618 -0.109945 0.147142 -0.980397 0.46374 0.0723301 -0.347946 0.0684321 0.138393 -0.0238821 0.614095 -0.909398 -0.260352 0.265278 0.526314 -0.246778 0.394253 0.206905 -0.544182 -0.069042 -0.38837 0.665809 0.252375 -0.326178 -0.0730041 -0.980755 0.45708 0.135308 0.123322 0.678682 0.611352 0.990203 0.341596 -0.790948 0.541133 0.814572 0.516861 0.881823 0.800765 0.457796 0.185538 0.329575 -0.829155 0.384874 0.574578 0.924949 -0.383541 -0.169764 0.773453 -0.570031 -0.503474 
0.111173 0.477344 0.725828 0.995207 0.439722 0.40694 -0.558906 0.468754 0.342198 -0.684835 -0.0284161 0.41107 0.845712 -0.112179 0.608479 0.700268 -0.594218 0.985468 0.760444 0.782516 -0.258335 0.16673 0.237062 0.304953 -0.663895 -0.0818654 0.0873985 0.906836 -0.80977 0.189786 -0.269049 0.0888766 -0.251783 0.285139 0.329963 -0.314016 0.331992 -0.218908 0.81377 -0.969085 0.594486 -0.465333 -0.847826 0.582529 0.559327 0.616771 0.0789199 0.407231 0.338852 -0.920351 -0.335962 -0.514977 0.774291 -0.492208 -0.539371 0.785367 -0.342156 -0.616066 -0.22712 0.789941 0.535972 0.078428 0.139799 -0.39288 0.863917 -0.15472 -0.382821 -0.0759419 -0.354814 0.643777 -0.0487173 -0.79094 0.663365 -0.828252 -0.439217 0.0795835 -0.440521 0.162369 0.928354 0.838723 0.422111 0.418523 0.110024 -0.830152 -0.366765 -0.222542 -0.262731 0.287589 -0.492394 0.341445 0.662978 0.667894 -0.708844 0.455944 -0.955852 0.998269 -0.0967504 -0.0841541 -0.377172 0.877937 -0.510975 0.0404164 -0.721448 0.617462 -0.308877 0.706558 -0.887659 -0.877412 -0.668331 -0.639365 0.188618 0.0964216 0.558268 0.806475 0.428274 -0.00117069 0.323936 0.39835 -0.939187 -0.913115 -0.726863 -0.378449 -0.59942 -0.455331 -0.752911 -0.172977 0.781539 -0.676774 
-0.540597 0.19037 -0.453201 -0.954159 -0.545475 0.197898 0.0646597 0.735395 -0.216263 -0.733282 -0.275437 0.73039 -0.332922 0.587348 -0.448802 0.992696 0.248924 -0.341347 0.978728 -0.512226 -0.98514 0.747629 -0.591825 -0.805589 0.457715 0.820353 -0.332962 -0.0879272 0.207762 -0.145713 0.998241 -0.564126 0.742214 0.384198 -0.790641 -0.304859 0.235727 -0.131839 0.1743 -0.531641 0.716198 -0.864722 0.615681 -0.25687 0.783338 -0.433304 -0.539724 0.859349 -0.913809 -0.387558 0.314089 0.896514 -0.294487 0.553655 -0.719707 -0.12123 0.488811 -0.558766 0.812078 0.597497 0.127104 0.242184 0.380692 0.291528 -0.29546 0.208815 -0.445675 -0.455472 0.876498 -0.70593 -0.559343 -0.884433 -0.671274 -0.10925 -0.173363 0.280831 -0.0682103 -0.410897 0.0523921 0.555128 0.0423301 -0.556417 0.302231 -0.398771 -0.13906 0.822141 -0.282584 0.612637 0.582232 -0.422376 -0.86844 0.134394 0.756058 -0.925244 -0.573306 0.448568 -0.915476 -0.408323 -0.691875 -0.349752 -0.279113 0.948014 -0.732436 -0.0547519 -0.214722 -0.839176 -0.0326446 -0.657544 0.651357 -0.648433 -0.215774 -0.507346 -0.957058 0.726704 -0.277163 -0.276701 -0.520175 -0.575253 -0.274953 0.863193 -0.314221 0.880328 -0.329613 0.198522 0.563233 0.259771 -0.035279 -0.934915 
0.876448 0.465461 -0.991125 0.157685 0.204658 -0.307744 -0.258257 -0.520866 -0.191244 -0.238569 0.376727 -0.343824 -0.646646 -0.181471 0.0146013 -0.595919 0.382671 -0.447749 0.679649 0.864028 -0.272823 0.667565 -0.242588 0.821308 -0.277384 0.00139046 -0.630704 -0.242276 0.0683094 0.0757693 -0.544872 0.342641 0.765633 -0.000237405 0.0096395 0.0117996 0.31482 -0.814913 -0.236434 0.2503 0.784932 0.356593 -0.744776 0.545383 0.247269 -0.150879 0.177666 0.0291543 -0.00270545 0.529726 -0.896115 0.99508 0.31289 0.749937 0.183577 -0.621897 -0.220104 0.718362 -0.496962 -0.433469 0.688833 -0.776037 -0.848083 0.262326 0.911046 -0.0547121 0.454197 -0.304424 -0.445757 0.169231 0.267138 -0.206778 0.687574 0.0600052 0.506749 0.928521 -0.3546 0.240619 0.0879576 0.303034 -0.909006 0.338717 0.823636 0.844303 0.206057 -0.795437 -0.91053 0.723496 -0.201614 -0.527711 0.76058 -0.931918 -0.751912 0.611392 -0.330312 0.452363 0.863125 0.545586 -0.333876 0.553418 -0.704597 -0.164516 0.971751 0.222763 -0.0200571 0.900267 0.796223 0.125214 0.464103 0.187245 -0.980239 -0.87002 -0.423232 0.739587 0.243475 0.0842315 -0.322039 -0.508321 0.649156 0.36341 -0.16709 -0.28694 -0.593641 0.682574 0.026087 0.444875 -0.985378 0.756901 
-0.762302 -0.00421929 -0.913754 0.543858 0.626256 -0.514092 -0.342287 -0.817421 -0.386942 0.658546 0.178765 0.506492 0.613624 -0.820261 -0.130456 -0.571975 0.807566 0.760714 -0.675451 -0.302986 -0.284534 -0.158876 -0.228815 0.299891 0.261155 -0.774167 0.575963 0.212389 -0.379543 -0.97752 0.827493 -0.327438 0.745037 -0.162835 -0.768967 -0.0256408 -0.945992 0.706314 -0.983808 -0.861895 0.129349 -0.028111 -0.462565 -0.3246 0.441123 -0.0513099 -0.36602 0.300338 -0.226376 -0.703631 0.0798956 0.804821 0.629511 0.193763 0.57824 0.483366 -0.0693716 0.0704354 -0.192801 -0.405424 0.0420182 0.198632 0.411978 0.116086 -0.94607 -0.600752 -0.84673 -0.995544 -0.111883 -0.418897 -0.398355 0.848135 0.602488 0.0145441 0.442815 0.38538 -0.915842 -0.564154 0.260861 0.284076 0.459623 0.877427 0.919557 -0.997635 0.742225 0.572813 -0.729947 -0.216594 -0.296093 -0.441418 -0.909309 -0.75639 -0.644126 0.178659 0.714473 0.143197 0.717905 -0.168463 0.64814 -0.715246 0.86085 0.312598 -0.159623 -0.786303 0.603437 -0.0343605 0.502661 0.215863 0.00833368 0.0632948 -0.204382 0.951364 -0.425904 -0.173316 -0.925982 -0.976458 0.677297 -0.674038 -0.550894 -0.882054 -0.678653 -0.116444 0.933368 -0.883442 -0.00930995 -0.472108 -0.711466 0.39649 
-0.192587 -0.813246 -0.217829 0.951835 -0.515871 -0.246218 -0.182893 0.125376 -0.803523 -0.814008 0.972267 0.898638 -0.594238 0.646555 0.648066 0.0496434 0.356352 -0.785719 0.428457 -0.915108 -0.221594 -0.333424 0.146233 -0.267128 0.383654 0.0664378 0.620276 0.986233 -0.388955 0.832211 0.967707 0.254644 -0.204262 0.968454 0.808234 -0.0136269 0.972519 -0.876359 -0.971611 0.134899 -0.747416 0.180622 -0.278582 -0.126012 0.114941 -0.184788 0.260736 0.195092 0.919363 -0.272752 -0.139055 0.902424 -0.967953 -0.387968 -0.584714 0.703946 -0.785106 0.718067 0.550324 -0.702713 -0.493579 0.412879 -0.742332 -0.365803 -0.0511656 0.0597005 -0.61453 -0.401604 0.235558 -0.977006 -0.54705 -0.26805 0.881839 -0.935142 -0.93108 -0.66847 -0.980373 0.868504 0.943657 0.0481071 0.535955 -0.205622 0.107316 -0.332444 0.616029 -0.408835 0.71247 0.486757 0.929152 0.260023 0.207317 0.384659 0.965557 0.115476 0.800604 -0.256999 0.620662 -0.533377 -0.469617 -0.848905 0.449942 0.182566 0.381201 0.851572 0.371095 0.996334 -0.615784 0.513844 0.172789 0.0607873 -0.348457 -0.516328 0.0755035 0.986992 0.367088 -0.35765 0.970246 0.931663 0.460651 0.167067 -0.112691 0.0111024 0.598464 0.380877 -0.605552 0.491405 -0.949094 0.572129 
-0.228856 -0.374899 -0.926939 0.934953 -0.238411 -0.978821 0.959412 0.83567 -0.888396 0.736451 -0.476451 0.288044 -0.848567 0.142217 0.246638 -0.75586 0.265523 0.63821 0.391734 -0.125519 0.399716 0.0346818 0.897863 0.382543 -0.600596 -0.208962 -0.0255796 0.0834882 -0.813034 -0.659727 -0.0235419 0.331758 -0.136741 -0.213748 -0.459744 -0.909654 -0.547778 -0.502747 0.329919 0.955251 0.911788 0.423369 -0.431747 -0.380507 0.813177 -0.927059 0.911289 0.0357085 0.153019 -0.2052 -0.788907 0.834796 0.410036 -0.526292 0.616387 -0.39067 0.0100408 0.755312 0.534596 0.954903 -0.936764 -0.187257 0.77824 -0.120292 0.249866 -0.499492 -0.965873 0.579169 0.100494 -0.990021 0.710609 -0.787054 -0.0215297 0.150377 -0.621943 -0.988747 0.129112 -0.00686502 0.619775 0.552913 0.804356 0.806069 -0.399247 -0.147564 -0.113408 -0.051837 0.774843 0.785671 0.773112 -0.306963 0.877834 -0.235735 0.005741 0.488857 0.218689 -0.487123 0.918993 -0.486091 0.274014 -0.651657 -0.390387 0.767785 0.155178 0.0772222 -0.126099 0.660066 -0.270378 -0.235028 -0.112531 0.686531 0.528265 0.549058 0.0247459 -0.0940197 -0.189166 0.680093 0.316876 -0.257157 -0.0298475 0.353139 -0.790453 0.862817 -0.633749 0.588687 0.0632957 -0.188901 -0.866891 0.161423 
-0.963355 0.887614 0.124813 -0.268452 0.120372 -0.902604 -0.0595056 -0.111543 -0.71086 0.582823 -0.499807 -0.262196 -0.725125 0.822016 -0.376498 0.20357 -0.5993 -0.430571 -0.61174 0.479928 0.157169 -0.464783 0.390498 -0.896969 0.6377 -0.181005 -0.146366 0.020365 0.274277 -0.219912 -0.0655485 0.32632 0.461581 -0.212455 -0.735167 0.0503544 0.306467 0.789148 -0.782662 -0.194074 0.204279 -0.675983 0.758909 0.984517 0.782911 0.388021 -0.523596 -0.0775914 -0.0781147 -0.873936 -0.247897 -0.401352 0.474883 -0.640227 -0.300966 -0.333791 -0.0231377 -0.874765 -0.179726 -0.659555 0.862369 -0.161166 -0.719025 -0.646802 -0.803086 0.538631 0.778094 -0.56932 -0.5548 -0.516914 0.234846 -0.944762 -0.608091 -0.191327 0.363407 -0.218369 -0.122527 0.680288 -0.39309 -0.664852 -0.175714 0.778297 0.835276 0.487647 -0.112073 0.380635 -0.672212 0.141308 0.96944 -0.62292 0.586913 0.242293 0.22003 0.0394214 0.556152 -0.754481 -0.555073 0.89458 -0.791889 0.722099 0.323364 0.770585 -0.780027 0.0876801 -0.359651 -0.650897 0.378335 0.66914 0.238339 -0.232545 -0.378261 0.57256 -0.979024 -0.449457 -0.0264089 0.146259 0.16769 0.360087 -0.0130717 0.304306 0.468409 0.545519 0.536999 -0.666353 0.604359 -0.536349 -0.423125 0.543033 
0.759072 -0.270164 -0.65484 0.11173 -0.14762 0.948414 -0.0126529 -0.65755 0.559757 -0.166706 0.179535 -0.54849 -0.464805 0.0283878 -0.887351 0.290652 0.994691 -0.220907 -0.783268 -0.386026 0.0673677 0.248346 -0.0445893 0.587459 -0.569158 0.160199 0.467945 0.743537 0.620603 0.477636 -0.373753 0.32895 0.667372 0.517843 -0.615338 0.0115994 0.952283 -0.973286 -0.0182727 0.89032 -0.396484 0.29386 0.912224 -0.249302 -0.0191275 0.523923 -0.421911 0.940226 0.38406 0.899015 -0.259919 -0.455385 0.349217 -0.714184 0.716555 -0.854509 0.270858 0.316678 0.400248 0.970063 -0.146338 0.490104 -0.827678 -0.788474 0.11537 -0.98409 0.391944 -0.59459 0.72514 -0.579367 0.574081 0.583839 0.58799 0.346 -0.777647 0.0913527 -0.635487 -0.62945 0.828048 0.99538 -0.6525 -0.569404 0.0200812 -0.495832 0.550517 0.535416 0.740114 -0.907484 -0.0848487 -0.0523927 -0.563659 0.581481 0.946616 -0.230875 -0.317518 -0.526453 -0.100772 0.320042 0.954281 0.602511 0.405111 0.704594 0.113379 -0.439659 0.652062 -0.799905 -0.00139678 0.524453 0.485264 -0.166164 -0.70996 -0.303144 -0.932554 0.556657 -0.267159 -0.137645 0.597445 -0.739024 -0.781755 -0.949105 0.398728 -0.58009 0.433582 -0.779262 0.944041 0.501856 0.700662 0.032745 
0.344503 0.055802 -0.135578 -0.665591 -0.580165 -0.828247 -0.353769 0.209154 -0.741613 -0.295491 -0.318948 -0.56488 0.0552307 0.263501 0.668183 0.146886 0.708917 0.765408 0.216918 -0.254108 -0.798262 -0.391844 0.271953 0.716691 -0.576769 0.239493 -0.843983 -0.817258 0.350236 0.421495 0.072939 -0.113669 -0.438298 -0.472353 -0.84047 0.216373 0.57395 0.384755 0.574126 -0.659852 -0.126315 -0.978084 -0.663498 0.586107 0.704443 -0.425918 -0.401173 -0.517146 0.330192 -0.462644 0.340612 0.671355 -0.53901 0.85398 0.847997 0.284396 -0.162926 -0.297566 0.802806 0.756108 -0.0855527 0.115984 -0.656414 -0.342822 0.188578 -0.560774 -0.932878 -0.88364 0.659396 0.468369 -0.116858 -0.0321632 -0.567192 -0.790906 -0.75872 0.1851 0.968984 -0.277375 0.157824 0.546605 0.796904 -0.432854 -0.972689 0.0113447 0.67043 -0.0864059 -0.223678 0.651244 -0.548676 0.409265 0.520425 0.790911 0.841461 0.432397 -0.709518 -0.87343 0.25741 0.289912 0.558779 -0.60936 0.494292 -0.438049 -0.286467 -0.643709 -0.810683 0.845109 -0.254919 -0.418821 0.870863 0.594314 0.628799 0.223738 0.37124 -0.565455 0.403658 0.28471 -0.882412 -0.699604 -0.241467 -0.330682 0.231667 -0.369327 0.722503 -0.887433 0.907968 0.21366 0.986821 -0.502075 
-0.373859 0.547919 0.876 0.925882 -0.70856 -0.763084 0.848169 -0.822509 0.095839 0.765836 -0.589427 -0.50691 0.367265 0.628814 0.474824 0.366559 0.764492 0.817191 0.52322 -0.233796 0.585774 -0.90362 0.85661 -0.950845 -0.855677 0.638552 0.142801 0.0504177 -0.630164 0.828423 -0.687535 0.599351 -0.711173 -0.691336 0.710914 0.333598 0.785572 -0.888207 -0.0963274 -0.975119 -0.816538 0.438721 -0.415543 -0.0360837 -0.458302 -0.687667 0.383502 -0.478979 -0.203788 0.933663 0.0767387 -0.253016 -0.442217 -0.348155 0.550683 -0.677395 -0.97047 -0.695301 0.069333 -0.721668 0.93345 0.486564 -0.319495 0.239543 -0.00587249 -0.698601 0.61298 0.346823 -0.949141 -0.212324 -0.524437 -0.207553 -0.346962 0.609213 -0.955575 -0.354793 0.991111 -0.401679 0.973258 -0.44378 -0.618256 0.969472 -0.0803489 -0.424386 -0.66314 0.599075 0.660922 0.120703 0.660583 0.420289 -0.202789 -0.272185 -0.612877 -0.617226 0.274169 -0.0338925 0.368991 -0.364048 -0.548696 0.0627918 -0.657456 0.143297 0.400121 0.826796 -0.032697 0.46141 0.916394 -0.161974 -0.295725 -0.24633 -0.0684997 0.726079 -0.7938 0.609708 -0.638242 -0.938124 0.946378 -0.22968 -0.234992 0.490224 -0.799177 0.227759 -0.0523814 -0.373697 -0.733325 0.998996 0.125127 -0.991132 
0.0509173 -0.233848 -0.27555 0.836644 -0.531519 0.767536 -0.0212231 -0.69574 0.694608 0.272867 0.0831877 0.136454 -0.625171 0.749939 0.228626 0.509612 -0.955869 0.708521 0.111257 -0.104392 -0.522356 0.769274 -0.817971 0.354635 0.349004 -0.294074 -0.50927 0.692645 -0.720585 -0.876456 -0.597007 0.103982 -0.37194 0.803924 -0.443982 -0.00774705 -0.205044 -0.166917 0.624579 -0.694922 0.440905 0.296264 -0.684066 0.897365 0.0127575 0.416479 -0.231098 -0.0707631 0.685714 0.788495 0.228177 0.966839 -0.340721 -0.499219 -0.374486 0.0118103 0.496392 0.861772 -0.192959 0.93336 0.98484 0.209716 0.69032 0.206814 -0.0761157 0.724307 -0.574136 0.488986 0.393324 0.60269 -0.586182 0.0395656 0.978601 -0.652143 -0.573326 0.118014 -0.545496 -0.154712 -0.238847 -0.306791 -0.239307 -0.0283967 0.737382 -0.817749 0.0961246 -0.432921 -0.102535 0.690097 0.463696 -0.654051 -0.633139 0.827268 -0.0976508 0.783279 0.574093 0.785681 0.947546 -0.592741 -0.190744 0.158406 0.321928 0.651202 0.749096 0.0496863 -0.922714 -0.050826 -0.231683 0.100444 0.165247 -0.689016 -0.2919 0.0351313 0.451374 0.23724 -0.702353 -0.455238 0.814867 -0.523256 -0.360319 0.117653 -0.607598 0.0945752 -0.475681 -0.774076 0.110542 -0.121188 -0.799178 0.223048 
0.76187 0.751899 -0.840705 0.273119 0.311697 0.688009 -0.625642 0.829716 -0.960673 -0.0316071 0.779825 0.526398 -0.833634 -0.879645 -0.184909 0.240938 -0.55112 -0.679768 -0.864198 -0.576617 0.791453 -0.0543273 0.921361 -0.683947 0.900133 0.532743 -0.181571 0.337661 -0.934709 0.341495 -0.494216 -0.290777 0.917092 -0.42865 -0.317589 0.275126 0.0438805 -0.500524 -0.30582 0.0865152 0.0607456 0.950692 0.274744 -0.381099 0.867678 -0.939023 -0.152786 0.124864 0.596267 -0.532491 0.418235 -0.72373 0.274984 -0.348281 0.448379 -0.09497 -0.160908 -0.376438 -0.800446 0.899619 -0.0972688 -0.795952 0.438562 0.903221 0.433076 0.714367 0.363638 -0.344363 0.293377 0.781143 0.670311 -0.0789369 -0.692237 -0.418945 0.796938 0.132758 -0.73674 -0.39202 -0.684536 -0.998158 -0.0432816 0.565657 -0.995588 -0.839485 0.776015 0.486051 -0.93733 0.29796 -0.18309 0.798934 -0.309618 0.2559 0.906696 0.83972 -0.817203 -0.726675 0.777456 0.698271 -0.165209 -0.673714 0.887837 -0.116166 -0.405732 0.867833 -0.326941 -0.889842 0.423568 0.912398 0.664064 0.922509 0.60511 0.0896974 -0.455647 -0.0588292 -0.742599 -0.869065 -0.368312 -0.220269 -0.065838 -0.538942 -0.00441843 -0.260998 -0.589677 -0.702783 0.328286 -0.496521 0.966097 -0.804762 
0.365518 -0.742454 -0.428787 -0.622893 -0.969598 -0.037404 -0.648783 -0.092203 0.344427 0.786772 -0.72485 -0.557374 0.218244 0.0297407 -0.147913 0.0187244 0.702276 -0.849105 -0.902639 -0.659741 -0.270667 0.89456 0.869605 -0.550313 0.881968 -0.764921 -0.0285795 -0.335047 0.866609 -0.907631 -0.549811 -0.667995 -0.993516 -0.0294694 0.708589 -0.740364 0.698337 0.957781 -0.579569 -0.815691 0.673963 -0.70037 0.883561 0.0109508 0.0506519 -0.693751 0.12665 0.610159 0.938904 0.160693 0.772693 0.647442 -0.437488 -0.859777 -0.271721 -0.823417 0.838708 0.161665 -0.895991 -0.923888 0.210758 0.205108 -0.746345 0.186531 -0.972459 -0.118187 -0.368746 0.480843 -0.470136 0.426368 -0.0347505 -0.0521429 -0.364765 -0.605954 -0.264395 0.316803 0.501957 0.390767 -0.381906 -0.686169 -0.448209 0.949341 -0.429303 0.704707 0.00736034 -0.294928 -0.859967 0.532021 -0.329943 0.647545 -0.717612 -0.904681 -0.979748 -0.622326 0.570198 -0.681303 -0.6534 0.313102 0.313126 0.707763 -0.630808 0.0119585 0.986211 -0.75861 0.0394013 0.217129 -0.708387 0.133581 -0.911835 0.796921 -0.151934 0.444678 -0.29122 -0.541735 -0.939186 -0.902644 -0.729302 0.621472 -0.925544 0.387232 0.21448 0.77272 -0.89747 0.221817 0.078498 -0.68385 0.525905 0.877474 
-0.287991 -0.270435 0.803518 0.733271 0.0839101 0.276858 -0.840523 -0.673376 0.568968 0.638096 0.475228 -0.836004 -0.720372 0.707677 -0.0777001 0.0949132 -0.792125 0.756901 -0.770848 0.356516 -0.0347654 -0.302086 0.844433 0.382477 0.284992 -0.137691 -0.178618 -0.0260966 -0.605503 -0.696186 -0.800534 -0.573006 -0.510561 0.995413 -0.0875615 0.354295 0.634658 0.705291 -0.179218 -0.114678 0.608691 0.263238 0.24691 -0.180392 0.150302 0.132882 -0.650841 -0.677649 0.757146 -0.647698 0.146368 0.005916 -0.570385 -0.457416 0.212692 0.706063 0.803367 0.188277 0.362886 -0.973024 0.392278 -0.989172 0.982839 0.575706 -0.111132 0.200153 -0.0256599 0.735114 -0.932402 -0.878266 0.97983 -0.00450641 0.260883 0.657503 0.653646 -0.17023 0.951952 -0.541669 0.160841 -0.740369 0.621154 -0.267886 -0.359256 -0.0232925 0.523468 -0.0758654 0.929556 -0.952887 0.829498 -0.635091 0.029162 0.125897 -0.0413393 -0.789461 -0.465952 0.744136 0.687286 -0.779289 0.483131 -0.0215629 -0.407972 -0.790824 0.616357 -0.888599 -0.687117 -0.366496 0.295903 -0.762275 0.441884 0.740171 0.0472234 -0.316224 -0.781559 0.331334 0.725704 0.901919 0.553679 -0.326166 0.124909 -0.653168 0.204467 0.479844 0.741222 -0.281414 0.275607 0.121163 0.389107 -0.276995 
0.541668 -0.184211 -0.0314665 -0.858646 0.738592 -0.483714 0.211162 -0.998692 0.985821 0.691376 -0.0401003 0.0332991 -0.342196 0.708315 0.64178 0.404897 -0.895317 0.413891 0.26908 0.433581 -0.811632 0.903749 -0.681756 -0.276283 0.507451 0.729308 -0.520731 0.0799527 -0.235525 -0.469982 -0.99284 -0.659884 -0.663517 0.268137 0.587186 0.841052 -0.438733 0.215533 0.45637 0.208688 -0.575105 0.216979 0.758013 -0.0684239 -0.000367463 -0.175686 -0.758633 -0.336875 0.143351 -0.701068 -0.847462 0.704925 -0.322839 0.0370076 -0.0131792 0.49618 -0.706786 -0.952068 0.59702 0.118788 0.463542 0.745967 -0.538663 0.694393 0.659323 -0.755127 0.580722 0.187818 0.657685 -0.293131 -0.648319 -0.299753 0.0477965 -0.6845 -0.382599 -0.333169 0.435459 0.754588 0.369272 0.353938 0.639206 -0.869619 0.318872 -0.717439 0.00433314 0.826878 -0.657698 0.0723332 -0.29576 -0.837597 0.514682 0.255198 -0.893966 -0.889544 -0.566851 0.93521 0.0747478 0.285452 -0.413894 -0.324726 0.332746 0.457791 0.0938125 0.706698 -0.523532 -0.994672 0.542555 0.723285 0.253557 -0.464246 -0.580423 0.829229 0.852178 0.551292 -0.436512 -0.459307 0.424844 0.353456 0.536159 -0.781648 0.837327 0.951174 0.379544 0.995395 -0.395185 0.129994 0.811864 -0.996795 
0.871748 -0.524456 -0.526994 0.806677 -0.177618 0.78064 0.217645 -0.0470384 -0.574735 0.430975 -0.605881 0.956503 -0.0513226 -0.578991 0.894047 0.241596 0.508979 0.417831 0.487443 0.451415 0.927088 -0.435555 -0.379718 0.0720956 -0.287881 -0.421799 0.818305 -0.755995 -0.00302881 -0.905061 0.633043 -0.452758 0.48828 0.524933 0.545407 0.655712 0.543209 -0.291779 0.0622392 0.0538806 -0.428258 0.268316 -0.413076 -0.566282 0.50279 0.389997 0.679729 0.199379 0.967666 -0.441152 -0.439779 0.63289 0.976905 0.847898 0.625018 0.669081 -0.760399 -0.0327652 -0.684637 -0.688075 -0.471724 -0.269143 0.516027 0.86201 -0.205252 0.330251 0.519816 0.542233 -0.681339 0.72935 0.190827 -0.767425 -0.110842 -0.917288 -0.861149 0.671419 0.5389 -0.709534 0.857812 -0.750235 0.803148 0.513248 0.163708 -0.564167 0.0498304 -0.500844 0.317715 -0.16473 -0.616232 0.986864 0.231193 -0.335413 0.721766 0.72416 0.953889 0.0155257 0.941098 -0.958778 -0.183653 -0.657355 -0.15752 0.569304 0.298298 -0.502555 -0.443676 -0.854662 -0.305348 0.0229545 -0.203659 -0.893862 0.862123 -0.30526 -0.503998 -0.687326 0.11746 0.155353 -0.986903 -0.881784 -0.13784 -0.68099 0.607674 -0.828801 0.345233 0.334045 0.292594 -0.367971 -0.493699 0.396822 
-0.613482 -0.78559 0.592151 0.284878 -0.0630095 0.999348 0.0422221 -0.372557 0.432341 0.363793 0.263227 0.0536302 -0.637608 -0.278735 -0.690776 0.129464 -0.0937144 0.943304 0.109255 0.242329 0.830158 0.462309 0.0358596 0.692504 0.913222 0.514828 0.712302 -0.342303 0.91257 -0.440633 0.27493 0.749214 0.0368015 0.521696 0.140479 -0.963188 -0.297977 -0.097344 -0.0609592 -0.540287 -0.607427 0.977653 -0.585285 -0.885485 -0.35386 0.67373 -0.614118 0.518769 0.94627 -0.0381193 -0.671698 0.768425 0.914839 -0.29779 -0.951566 -0.973166 -0.00345224 -0.0215007 0.637662 -0.816177 0.509824 0.603626 -0.853129 -0.543366 -0.355193 0.279357 -0.841111 -0.55016 -0.541216 -0.211251 -0.487457 -0.696411 -0.586008 0.966549 0.795989 0.182304 -0.0104875 -0.262867 0.000598669 0.0613064 0.376614 -0.243972 -0.443154 -0.0864362 -0.733628 -0.0879562 -0.280259 -0.316031 0.47277 -0.151752 -0.491642 0.965175 -0.30473 0.406856 0.0290449 0.157941 0.518757 0.741063 -0.958924 -0.643246 0.961966 -0.242126 0.592345 -0.461403 -0.806042 0.844787 0.330768 -0.78681 0.0865471 0.598448 0.122888 -0.6172 0.717565 0.107957 0.432915 0.000526309 0.846372 0.976534 0.608231 0.544967 -0.741303 0.918123 0.894001 -0.523447 0.427113 0.486376 0.519747 -0.611577 
-0.771294 0.85912 -0.763522 -0.510168 -0.387845 -0.516878 0.829102 0.719492 0.504023 -0.88681 -0.620256 -0.647351 -0.0248184 0.87824 0.583005 0.566736 -0.86297 0.0634279 0.0340066 -0.452 -0.770125 0.516315 -0.299479 0.664587 -0.280198 0.708175 0.296953 0.894343 -0.783478 0.0824661 0.00814819 0.947602 0.339083 0.961388 0.0392767 0.123935 0.984023 0.467738 -0.724218 0.068206 0.337846 0.173893 0.624794 0.917338 -0.292977 -0.0672765 -0.715677 -0.384207 0.625207 -0.140907 -0.221028 -0.814649 0.191835 0.17236 0.854705 -0.977663 0.416893 0.718436 0.749748 -0.989969 -0.405762 0.355378 0.841767 -0.415129 0.93023 0.379226 -0.345538 0.535128 -0.0988207 -0.880364 -0.277087 0.992141 0.91219 -0.817997 -0.0809652 -0.781209 0.224903 -0.058313 -0.0662552 0.449022 0.714295 -0.849418 -0.175374 0.490858 -0.154705 -0.120419 0.123019 -0.419571 0.2654 0.571219 0.472659 -0.0247428 0.147975 -0.989322 0.462999 -0.382867 -0.845509 -0.465522 -0.027555 0.883811 0.206605 0.406573 -0.725365 0.793173 0.863998 -0.792979 0.403089 0.716488 0.01624 0.946483 -0.464051 0.690013 -0.949088 0.670585 0.516519 -0.859946 0.891721 -0.8532 0.268153 0.842451 -0.92245 0.384456 -0.451765 -0.807415 -0.21849 -0.167902 0.0685838 0.689586 
-0.12493 0.303392 -0.891295 0.00709629 -0.732918 -0.15196 0.000437975 -0.639151 -0.211033 -0.837974 0.163427 0.709364 0.274966 -0.644603 0.164644 -0.823679 0.427797 -0.00958133 0.966841 -0.30364 0.726821 -0.31647 -0.903865 0.747563 0.290397 0.704432 -0.605611 -0.508789 0.784657 -0.276837 -0.798415 -0.962306 0.526967 0.72709 0.208502 0.299106 -0.923304 0.0371712 0.738087 -0.972852 -0.723032 -0.00199169 0.526126 0.593231 0.433837 -0.509195 -0.0387478 0.765646 0.21264 -0.162523 0.476563 -0.401591 0.453945 -0.546566 -0.136139 -0.0947689 -0.781168 0.901993 -0.19811 0.372589 0.106535 0.539072 0.185628 -0.157447 -0.207027 0.49455 -0.0992193 0.421751 0.368442 0.401353 -0.457211 -0.347447 0.457783 -0.0342113 -0.98844 -0.715392 0.40647 -0.463915 0.988915 0.697725 0.666716 -0.51103 -0.877163 -0.474806 -0.0617223 0.632356 0.0101088 -0.100582 -0.482306 -0.125466 -0.708578 0.924112 -0.454147 -0.856026 0.767366 -0.875109 0.0498134 -0.786131 -0.497738 0.510065 0.669159 0.555526 0.730933 0.794237 0.745107 -0.988426 -0.471554 0.597797 -0.824496 0.692425 -0.406226 0.559125 -0.788967 -0.168044 -0.315986 -0.769856 -0.976918 0.946597 -0.544259 0.646369 -0.474765 0.630645 -0.745678 -0.609458 0.841989 -0.695882 0.317912 -0.85956 
-0.629846 0.181691 -0.314294 -0.337847 -0.186337 0.230123 -0.329801 -0.960733 0.967369 0.570571 -0.416732 -0.0201072 0.0596216 0.0593233 -0.953654 -0.0638667 0.59274 0.17564 -0.0263367 -0.6402 0.154044 -0.989864 -0.640916 0.126605 -0.158078 -0.81038 -0.0577334 -0.324257 0.215418 0.528782 -0.759305 0.367671 -0.558613 -0.615958 -0.402261 -0.807073 -0.482263 0.612388 0.411012 -0.117322 0.16299 -0.626417 -0.198465 0.397219 0.0575904 -0.0795812 0.479105 0.318927 0.205885 0.306427 0.12037 -0.949734 -0.180066 -0.366794 -0.701954 0.258519 0.927973 0.435125 -0.84845 0.0990601 0.902883 0.754059 -0.524692 -0.503886 -0.80499 0.533962 0.302604 -0.126374 0.0320208 0.173982 0.113745 -0.281543 0.10836 -0.796978 -0.814294 0.163073 0.769353 0.513748 0.56159 0.639418 0.695073 0.0983132 0.349872 0.297221 -0.613963 -0.879183 -0.42223 -0.425439 -0.345037 0.957382 0.713436 0.719852 0.55858 0.0614752 -0.786953 -0.318793 0.0377162 -0.105625 0.768555 -0.899647 -0.370451 -0.165343 -0.923827 -0.752405 0.331281 -0.15326 0.156008 0.0311533 -0.405182 0.10201 0.478534 0.717709 0.541222 0.320475 0.228829 -0.0757121 -0.492751 0.333016 0.998416 0.37236 0.246476 0.523507 0.573457 0.0936871 0.598274 -0.803657 0.931528 0.197015 
-0.770474 0.64876 -0.283854 -0.735147 0.377497 0.586011 -0.908384 0.792853 -0.52355 0.698268 -0.211025 -0.695926 -0.425719 0.945961 0.774861 -0.919244 0.273876 -0.963895 -0.177591 -0.779815 -0.357098 0.259067 0.133974 -0.295438 0.579942 -0.923761 0.348906 0.0657533 -0.883532 0.485272 -0.0287325 -0.906401 0.126314 0.963762 -0.0506541 0.656153 -0.0341845 -0.538127 -0.294138 0.425498 -0.652624 -0.649779 -0.828612 -0.480157 0.00704944 0.479436 -0.114959 -0.119188 0.811572 0.0941935 -0.890486 -0.406749 -0.235742 -0.115317 -0.13765 0.515566 -0.887364 0.0753646 0.653215 0.58789 0.668903 0.252808 0.93807 0.145043 -0.255221 0.501928 -0.10134 0.785052 0.362382 0.548796 -0.389013 -0.145021 0.633328 0.351693 0.905666 -0.479878 0.688392 -0.192586 -0.791488 -0.542778 -0.46537 0.531496 0.846702 0.523646 0.909409 0.44039 -0.369999 -0.581482 -0.965587 -0.616723 0.730217 0.758533 0.672989 0.92289 -0.990431 -0.170585 0.980401 -0.400174 0.277585 -0.625627 -0.912061 0.997109 0.410393 -0.517722 0.648629 -0.49424 -0.689577 0.27756 0.946552 0.706288 0.587777 0.759582 0.294012 -0.536333 -0.141141 -0.15046 -0.781169 0.894089 0.948724 -0.788786 0.869902 0.444162 -0.963151 0.327491 0.139609 0.40518 -0.139044 -0.915347 
-0.242094 -0.873646 0.624957 -0.343698 -0.539412 0.104911 -0.763608 0.0348008 0.89581 -0.124749 -0.651524 -0.168684 0.925856 0.860411 0.924772 0.640654 -0.519874 0.473006 -0.192392 0.475379 -0.302327 0.79701 -0.647737 -0.518592 0.0292841 0.17902 0.792776 0.177132 -0.942244 -0.295405 -0.873528 0.623061 -0.220234 0.521766 -0.681809 0.843172 -0.809093 -0.425492 0.752927 0.438071 0.666421 0.540247 -0.0621347 -0.298504 -0.961239 0.449399 -0.948835 0.929961 -0.146888 -0.753026 -0.112382 -0.808514 -0.698035 0.122112 0.33787 0.58459 -0.798235 0.0622259 -0.168654 -0.573726 -0.613415 0.329073 0.73009 0.617286 0.72338 -0.159631 -0.914624 -0.0901374 -0.939223 0.475098 0.964238 -0.0464854 0.719767 -0.87028 -0.792506 0.349374 -0.0733787 0.723182 0.515728 -0.167027 0.768994 0.484736 0.952645 -0.898114 -0.599453 0.988042 0.0165209 -0.334702 0.666856 -0.148233 0.644153 0.283175 -0.669594 0.126865 0.22638 0.763142 0.133446 0.818049 0.946092 0.96831 0.387413 -0.756104 0.156679 -0.700565 -0.402418 0.555221 -0.399925 0.46186 0.47435 0.406187 0.78634 0.020669 -0.616262 0.488153 0.380257 0.982247 0.61806 -0.269743 0.436618 0.238491 0.32361 0.915649 -0.684368 -0.176736 -0.40758 -0.204481 -0.705729 0.815137 
0.000604749 0.164286 -0.849169 0.0108571 0.475282 0.0648737 0.331346 0.925104 0.221685 -0.133923 -0.838105 -0.0314161 -0.0110188 0.807199 0.595101 -0.14495 -0.175811 -0.858463 -0.188509 -0.275805 0.551237 0.637206 -0.482685 -0.487459 -0.724258 -0.597458 0.522813 0.918819 0.596474 0.932728 0.352389 0.599936 -0.875306 0.73929 -0.744364 -0.526606 -0.661138 0.258803 -0.304454 -0.953547 -0.265539 -0.917376 -0.344637 -0.316324 -0.449922 0.15796 0.827961 -0.464003 -0.503855 -0.293834 -0.470019 0.397408 -0.768958 0.125831 0.836359 0.69172 -0.269155 0.315218 -0.134559 0.473391 0.285166 0.778038 0.487431 0.247898 0.418445 0.803646 0.882251 -0.007146 -0.102563 0.230001 -0.379793 0.820268 0.242905 0.506916 -0.270297 -0.875619 -0.524882 0.308575 0.22158 0.0871279 0.359574 -0.632362 -0.103305 -0.251399 0.73413 0.519695 0.516315 -0.290103 0.246858 0.934978 0.171033 0.552104 -0.792552 -0.424028 -0.637603 -0.194758 0.709691 -0.225429 -0.777799 -0.464239 -0.458676 -0.968939 -0.95143 -0.687256 -0.709367 -0.330205 0.250894 0.772992 -0.328952 -0.698959 0.595644 0.992258 0.876468 0.799146 -0.74599 0.146202 -0.788317 0.75619 -0.714388 -0.726609 -0.115176 0.242991 -0.0569614 0.650752 -0.810207 0.857026 0.0311058 0.794352 
0.680114 0.67739 0.899516 0.173714 -0.387184 0.599572 0.998776 0.429453 -0.186995 -0.827066 -0.495343 0.772806 0.557186 0.624348 -0.582687 0.78157 -0.158747 -0.0543995 -0.293354 -0.400969 0.909286 0.363068 0.0810448 0.120269 -0.635503 -0.893481 -0.730773 -0.10577 0.326649 -0.00492573 -0.787029 0.406995 0.370429 -0.208131 -0.0594237 -0.73357 0.884423 0.500691 -0.88838 0.999761 0.980893 -0.126496 -0.0235281 0.563153 0.909503 0.0132082 -0.00994307 0.886488 -0.800475 0.418376 -0.355862 -0.967214 0.0419495 -0.954208 0.632709 -0.0590842 0.972197 -0.280358 0.0272052 -0.761602 -0.242407 -0.138069 -0.531313 0.225116 -0.46795 -0.842869 -0.0982103 -0.620385 -0.813721 -0.210728 0.302635 0.391888 0.464352 0.358418 -0.0745187 -0.435081 -0.414322 0.497507 -0.392743 -0.828932 0.132922 0.0213193 0.313748 -0.835363 0.0602325 0.327786 -0.903325 -0.190566 -0.840072 0.90521 -0.129262 -0.50421 -0.256025 0.990672 0.218117 -0.108658 -0.217768 -0.0234589 -0.27327 -0.841383 0.87888 -0.66023 -0.477257 0.737593 0.729647 -0.822946 0.746628 0.573561 -0.166339 0.34241 0.882784 0.946158 0.0747708 0.673749 -0.298074 0.27773 -0.199609 -0.828492 -0.465117 0.778287 0.670531 -0.382793 0.395894 -0.204642 0.577441 -0.949564 0.680269 -0.72521 
-0.60243 0.956833 -0.498701 0.324789 0.735616 -0.497407 0.0775096 0.70551 -0.486424 0.67528 -0.576085 -0.258515 -0.859789 -0.477915 -0.317983 -0.339111 0.565289 0.818372 0.377389 0.773299 0.835278 0.510547 0.767495 -0.718193 -0.661925 -0.981755 -0.355981 -0.970373 0.945074 -0.136423 -0.868557 0.1665 0.368457 0.650122 0.602923 -0.676676 -0.889123 0.505197 0.848256 0.644779 0.80036 -0.348359 -0.862694 0.69476 0.835518 0.553462 0.0319425 0.856726 0.988623 -0.213322 0.704656 -0.850707 0.165055 0.0837181 -0.951143 0.135682 0.400274 -0.595245 -0.274509 0.320909 -0.482051 0.169426 -0.453503 -0.0320166 -0.103952 0.886383 -0.562034 -0.106979 -0.00178134 0.0610931 0.792153 -0.287866 -0.169509 -0.929557 0.937172 -0.957376 -0.620396 -0.998627 0.0774899 0.371293 0.323871 -0.694399 -0.771319 0.449379 0.707118 0.528794 -0.556852 0.987174 -0.560139 -0.254345 -0.779364 -0.770841 0.46787 -0.515116 0.450438 0.51851 0.59473 -0.363705 -0.786892 0.708574 -0.996834 0.20502 -0.228628 -0.544392 0.401939 -0.618573 -0.352443 0.486789 -0.532268 0.164452 -0.0568303 0.852138 -0.124233 0.0108421 0.222913 0.497357 -0.917874 -0.70705 0.609348 -0.691845 0.161201 -0.703076 -0.602921 0.700077 0.18711 0.754716 0.515638 0.329261 
-0.112393 -0.988239 0.668198 0.401493 -0.103759 0.11775 -0.97699 -0.270341 0.381987 0.0636103 -0.901078 -0.412634 0.852522 0.329078 0.809433 0.147382 -0.949864 -0.364593 0.279629 -0.281906 -0.000904024 0.805597 -0.328799 -0.129906 0.663829 0.9729 -0.465827 0.84143 -0.0793227 0.823742 0.628183 -0.122816 -0.163139 0.13134 -0.574546 -0.396356 0.445752 -0.246775 0.456457 -0.330755 -0.993081 -0.717793 0.045633 0.953422 0.162985 -0.709408 0.974829 -0.0416177 0.531591 0.456633 0.635893 -0.542183 -0.475573 -0.95266 0.636901 0.394236 -0.0712752 0.0766761 0.695386 -0.648659 -0.0128775 -0.432943 -0.480017 0.359499 0.107796 -0.267214 0.937466 -0.0122064 0.84642 -0.219745 0.749847 0.677924 -0.124655 0.916802 0.688682 0.676371 -0.239653 0.151477 -0.127997 0.750769 0.173619 0.014374 -0.415203 -0.321018 0.643809 0.49797 -0.613363 -0.793669 0.800763 0.417851 0.816667 -0.279989 0.220571 -0.859106 -0.993109 0.809228 0.690944 0.70138 0.100912 0.0353659 0.395363 0.864046 0.0212922 -0.142357 -0.59458 0.893266 -0.884602 0.487613 -0.694027 -0.506216 0.0272408 -0.165201 -0.5368 0.00990319 0.44334 -0.780324 -0.902115 0.145065 0.108674 0.482925 0.523721 0.181586 -0.0921476 -0.724877 0.997462 0.348855 -0.800986 -0.167417 
0.218261 0.303758 -0.746875 -0.727735 0.960695 0.397412 -0.703608 0.466362 0.1408 0.420321 0.337278 0.624424 0.687987 0.993777 0.410154 -0.536281 0.729778 -0.625395 0.979085 -0.519231 -0.713096 0.989468 -0.00520557 0.509856 -0.859109 0.952951 0.250792 -0.940936 -0.315329 0.269112 0.968654 0.163868 0.128417 0.310463 -0.0457959 0.309102 -0.924371 0.102232 0.216627 0.848385 0.800051 0.465686 0.778899 0.962536 -0.666798 -0.869996 -0.0178574 -0.129138 -0.423257 0.326465 0.88979 0.701694 -0.627903 0.840285 0.669546 -0.933701 -0.720035 0.372982 0.707154 -0.858088 0.113471 -0.891885 0.0911959 0.731034 0.483293 0.704393 0.729789 -0.434682 0.291906 0.0712603 -0.326682 -0.53849 -0.407753 0.893063 -0.283688 0.0477686 0.84728 0.237688 0.822826 -0.767334 -0.578157 0.916991 -0.137271 0.878654 -0.456394 -0.61832 -0.112727 -0.599542 -0.505918 -0.968782 -0.323445 -0.139526 0.979352 -0.0370066 0.0304755 0.202332 0.594548 0.568859 0.818574 -0.218986 -0.49494 -0.454942 -0.21628 0.976907 0.880268 0.665309 -0.147307 0.216546 -0.507471 0.930558 -0.111542 -0.687255 -0.699208 0.405844 -0.973398 0.100863 -0.797078 -0.489935 -0.340444 0.15866 0.603203 0.0305253 -0.960293 0.348653 -0.195298 -0.369211 0.678814 0.824242 
-0.963275 0.235236 -0.383447 -0.588024 -0.913412 0.288006 0.522788 0.500923 -0.995262 0.630944 0.269945 0.960527 -0.420019 0.744963 0.595214 -0.237492 0.476991 0.781873 0.938943 0.820832 -0.277953 0.445159 -0.21616 0.991164 0.497727 -0.704128 -0.280154 -0.545095 0.580396 0.709344 -0.0570911 0.470122 -0.657966 -0.431476 0.179448 -0.00993884 0.957864 0.824153 -0.461086 0.533341 -0.130008 0.949729 0.0926923 -0.121073 -0.875863 -0.628592 -0.741411 -0.895482 -0.357645 -0.944759 -0.567958 0.33445 -0.892501 -0.260492 -0.0921341 -0.497004 0.851702 0.553416 -0.743745 -0.116533 -0.56607 0.0548033 -0.921779 -0.333583 -0.520947 0.4439 0.623482 0.853379 0.74237 -0.990713 -0.911893 -0.19011 0.828377 0.523864 0.588742 0.985352 0.804071 0.018538 -0.431935 0.475953 -0.654808 0.639228 -0.500699 0.74713 -0.993761 -0.145748 0.408915 0.640427 -0.338548 0.0292637 -0.163618 0.0684105 -0.223874 -0.64502 -0.845059 -0.906705 -0.990237 -0.917539 0.925118 0.463207 -0.877781 -0.857862 -0.088345 -0.814072 -0.112311 0.391957 -0.379788 0.911273 -0.235694 0.685602 0.913437 0.141818 -0.467463 -0.656628 0.0605073 0.945735 0.968568 0.729795 -0.329731 0.213645 0.738631 0.171587 -0.129837 -0.165064 -0.238633 -0.707835 -0.587429 -0.920985 
-0.999453 0.196375 0.477958 -0.966155 -0.162483 -0.857679 0.991895 0.776283 0.985556 0.241678 -0.112625 -0.883846 -0.792002 0.829949 0.958475 -0.905741 -0.787822 -0.91624 0.753707 -0.43958 -0.0288038 -0.105713 -0.724341 0.0041889 0.40313 -0.595308 0.660103 0.344885 0.476649 -0.955732 -0.991998 -0.508133 -0.193468 0.390205 0.176832 0.018482 0.627414 0.949196 -0.858483 -0.520128 0.205036 0.0425248 0.713816 -0.896069 -0.226102 -0.0987358 0.546759 -0.624495 0.111433 0.846446 0.22221 0.688743 -0.289531 -0.151706 0.282699 -0.686066 -0.714152 -0.749092 0.0195144 -0.0201634 -0.886915 -0.38385 0.627469 -0.128122 0.657513 0.813727 0.303689 0.103212 0.688129 -0.618085 -0.149172 0.871734 -0.768967 -0.0305715 0.185201 0.674961 0.0666088 -0.505255 0.185062 0.333781 -0.147336 -0.281336 -0.415402 0.342381 0.401665 0.79217 -0.00680578 -0.384461 0.368774 -0.0192908 -0.220346 0.641903 0.467631 -0.532798 -0.73618 -0.98485 -0.367793 0.509435 0.0768882 0.260751 0.443032 0.0364909 -0.696145 -0.102876 0.968505 -0.34093 -0.0145267 -0.150484 0.814083 0.285837 0.0638818 -0.339009 0.279452 0.750882 0.0774772 0.159793 -0.353315 -0.172626 0.667516 0.947555 -0.445934 -0.804914 -0.196961 -0.318897 0.299041 -0.0144873 0.512597 -0.778355 
0.191155 0.737659 -0.167586 -0.622445 0.558946 0.211749 0.868481 0.5676 -0.342613 -0.299777 -0.344461 0.641559 0.678653 0.122219 0.14152 0.52017 0.493107 -0.345671 0.303345 0.322437 -0.805252 0.133993 0.021186 0.0726986 -0.154846 -0.501357 -0.30289 -0.670689 -0.277734 0.122253 0.708994 0.0621125 -0.076191 -0.541906 0.190195 0.615119 0.305781 -0.743116 0.44498 0.785197 0.813788 -0.659051 -0.667574 0.0839007 0.1185 -0.376128 0.408535 0.242198 0.625814 0.0550523 -0.736769 -0.869053 -0.175799 -0.653756 0.313877 -0.662997 -0.995913 -0.302933 0.613793 0.0115227 -0.338723 -0.920667 0.350199 -0.200842 0.451101 -0.33768 0.620512 0.942462 -0.0370487 -0.67742 0.609394 0.0931555 -0.335573 0.0219505 0.922611 0.319523 0.231417 -0.576188 0.00446939 -0.882641 -0.545544 -0.962863 -0.830851 -0.112361 -0.451929 0.426668 -0.988198 -0.644819 0.525461 -0.579788 -0.49097 0.265576 -0.470883 -0.13569 -0.549272 0.378834 -0.939615 -0.102121 -0.340615 -0.714416 0.8181 -0.194463 -0.341023 0.430264 -0.550517 -0.541912 0.0835221 -0.244933 -0.594761 -0.144414 0.827534 0.371488 -0.404331 0.414858 0.522414 0.219729 0.985183 -0.0212798 0.350867 -0.975668 -0.0562717 0.241417 -0.502874 0.204669 -0.131119 0.286546 -0.0199545 0.624933 
-0.747555 -0.152356 -0.640925 -0.0277159 0.179816 0.163877 0.278965 0.571356 0.778182 0.90304 -0.613792 0.00114036 -0.833136 -0.509922 -0.254286 0.218232 -0.175138 0.455868 -0.2174 0.159122 0.370154 -0.816219 -0.193704 0.408774 0.273248 0.478975 0.132302 -0.39982 0.224248 0.942711 0.146271 0.374948 -0.256207 -0.0729293 0.277099 -0.78961 -0.977309 0.372525 -0.970921 -0.268221 0.000921011 -0.521109 -0.272602 0.383368 -0.731534 -0.88382 -0.36775 -0.769631 0.811781 -0.39939 -0.541416 0.423332 0.948263 -0.541008 -0.729236 -0.27321 0.156276 0.526886 -0.627388 -0.51034 0.708415 0.332965 0.142461 0.347546 -0.796402 0.875878 0.886236 0.965397 -0.577312 -0.880012 -0.357785 0.704372 0.374315 -0.88102 0.698172 0.182268 -0.614605 0.335267 0.825778 0.857623 0.0735584 0.296435 0.182921 0.346069 0.376805 0.967406 -0.805621 -0.0657906 0.257704 -0.772963 0.804748 -0.592749 -0.325687 0.183862 0.174963 0.605627 0.776388 0.755396 -0.0659866 0.963726 -0.660313 0.125532 -0.177573 -0.466103 0.203602 -0.0571985 0.665862 -0.853493 -0.660034 0.812635 -0.0377829 0.982885 -0.653491 0.782546 0.257125 -0.491467 -0.0852073 -0.0800588 0.451895 -0.991935 0.539912 0.294818 -0.989889 0.933298 -0.0552216 -0.110026 0.787843 -0.726517 
-0.57983 0.800117 -0.427274 0.799032 -0.66464 -0.605637 -0.944264 -0.240951 0.331825 0.990944 0.80307 -0.800079 -0.929445 0.817926 0.888493 0.89458 -0.785424 -0.627688 0.45336 -0.384406 -0.714289 0.947968 0.499202 0.0913594 -0.522834 0.725472 -0.988945 0.805379 -0.000884831 -0.870876 -0.819713 -0.917097 0.342982 0.50496 0.869017 -0.428225 0.830343 -0.421434 0.963116 -0.913936 -0.52915 0.576817 0.567359 -0.399286 -0.807656 -0.273536 0.684078 -0.694584 0.131333 -0.682581 -0.143983 0.0698844 0.546804 0.137511 -0.843363 -0.396964 0.233655 -0.961953 0.452686 0.300307 -0.733008 0.329192 0.724969 0.547181 0.475165 0.0897955 -0.807946 0.854784 0.357093 -0.33949 0.183715 -0.304853 0.331303 0.207629 -0.373505 0.50377 0.869701 -0.935139 -0.875466 0.0390522 0.351046 0.0363413 0.787646 -0.0279149 0.834998 -0.192944 -0.812424 -0.404725 -0.218209 0.563905 -0.44778 0.156175 0.827531 0.309597 -0.605159 -0.91203 -0.482829 -0.903584 -0.544062 -0.0501048 -0.111314 -0.851646 0.392307 -0.493012 -0.0475438 0.930712 0.472631 -0.488064 -0.889083 -0.824396 0.375189 -0.203322 0.770661 0.493198 -0.818794 0.536585 0.387165 -0.916414 -0.174591 -0.355317 0.195054 0.278226 0.151644 0.672951 0.283616 0.739958 0.475488 -0.479675 
0.10634 -0.746672 0.676031 0.0601361 0.708087 0.825267 0.265585 -0.319474 0.594359 -0.608709 -0.575714 -0.0246396 -0.117702 -0.21547 0.602397 0.486367 0.374302 0.890168 -0.940602 -0.694931 0.290138 0.352314 -0.664993 -0.538776 0.784696 0.386714 -0.498585 0.279331 0.719752 0.864547 0.444156 0.929847 -0.0571486 -0.496356 -0.259424 -0.132714 -0.525343 0.563913 -0.312055 -0.715503 0.535028 0.220185 0.644272 0.27818 -0.635094 -0.0316646 -0.185792 -0.605903 0.581714 0.867079 0.993339 -0.943471 -0.915869 0.991465 -0.45475 -0.986119 0.305132 0.353687 0.416958 -0.190944 0.803601 0.12289 -0.592578 0.535446 -0.757699 -0.65377 0.0862552 -0.308028 0.978897 0.316631 -0.38854 -0.197452 -0.584341 0.977908 -0.306468 -0.809027 0.67668 0.956555 0.824386 -0.5528 -0.915242 -0.477843 0.900708 0.199108 0.40364 -0.0176855 0.76053 0.221957 0.434736 0.608799 0.0866258 -0.0792082 0.747573 0.458038 0.243854 0.46039 -0.222963 0.658882 -0.171066 0.897264 0.31993 -0.94402 -0.151079 0.823002 0.197796 0.35441 0.571779 -0.11369 -0.794711 -0.703225 0.893157 -0.710635 0.353959 0.983409 0.162304 -0.159058 0.715363 -0.892565 0.651893 0.364523 0.542581 -0.839831 0.955967 0.93605 0.187241 0.961956 -0.408123 0.675858 
-0.850287 -0.775341 0.851681 0.206426 -0.60312 -0.634098 0.721681 -0.713435 -0.696264 -0.103687 -0.667034 -0.841549 0.079247 -0.0947285 -0.101902 -0.670298 0.299014 -0.465161 0.0406048 0.444772 -0.718042 -0.13094 -0.713372 0.360374 0.81309 -0.392484 -0.487238 0.98397 -0.414982 -0.608267 0.855126 0.106766 0.42272 0.656087 0.849165 -0.0866633 -0.550298 -0.858024 -0.816523 0.691435 0.939636 0.45977 -0.645543 0.366429 0.575629 0.591678 0.33792 -0.585392 -0.689651 -0.970934 -0.487563 -0.47713 0.884132 -0.401199 -0.951228 0.71831 0.643766 -0.230305 -0.730701 -0.891321 -0.428613 0.295341 -0.211458 0.0302935 -0.856792 -0.106855 0.0941516 0.406909 0.919858 0.0520633 -0.972261 -0.783621 -0.326428 -0.27074 -0.325728 -0.502322 -0.53215 0.153398 0.167422 -0.144912 0.468393 0.279955 -0.803229 0.133854 -0.311917 -0.394249 -0.146235 0.225116 -0.4785 -0.155807 -0.654185 -0.880763 -0.983957 0.632289 0.886493 -0.71775 0.772797 0.392394 0.964681 -0.608351 -0.555608 -0.105698 -0.459027 -0.864793 -0.576448 -0.355836 -0.530549 -0.938699 -0.710861 0.55817 -0.84384 -0.418961 0.526959 0.605218 -0.0979346 0.0130289 0.976842 -0.21425 -0.894363 0.448384 -0.00440323 -0.00562334 -0.51165 0.69888 0.0820907 -0.301565 -0.395653 0.261065 
-0.278771 0.699268 0.600408 -0.950105 -0.413378 0.36184 -0.560816 0.360949 0.461736 0.391174 0.466966 0.29531 -0.719546 0.597087 -0.754309 0.326581 0.845099 -0.423467 0.783373 0.154644 -0.894928 0.953574 0.718702 -0.781615 -0.595997 -0.923738 0.738503 0.0168471 -0.850593 0.0888394 -0.875654 0.881895 0.00730944 0.849368 -0.675572 -0.331487 0.699233 0.00887489 -0.839208 -0.57484 0.667569 -0.174154 0.987728 0.735553 0.438144 -0.11398 0.336849 -0.573566 0.0688536 -0.777099 -0.702677 0.107799 -0.22348 -0.0293741 0.310334 -0.216643 0.883578 0.29378 -0.43676 -0.628618 0.825118 -0.247416 -0.31402 0.259034 -0.414169 -0.939044 -0.505614 0.138299 0.397132 0.602261 0.205638 0.158232 -0.590404 -0.927446 0.407811 0.0798951 0.798435 -0.705324 -0.38018 0.319733 -0.2547 -0.740068 -0.317971 -0.14641 -0.711291 -0.667385 -0.739063 0.568218 0.0483633 0.843088 -0.225447 0.917912 -0.653442 -0.393603 0.713932 -0.941621 0.17958 0.195955 -0.590396 -0.793365 -0.0868025 -0.889725 0.392495 0.662987 0.828601 0.288098 0.0556296 0.965957 0.840722 0.0111816 -0.0700047 -0.569075 -0.449665 0.47295 0.872076 0.974336 -0.34012 -0.405159 0.487772 -0.0238886 0.50404 -0.593775 0.417607 0.727123 0.753421 0.749143 0.85286 0.0112566 
-0.810241 0.279455 0.805416 0.632785 -0.782322 -0.479196 0.149484 0.375127 0.754441 -0.116586 0.532441 0.743138 -0.076421 -0.407678 0.152044 -0.588937 -0.257682 -0.857898 -0.693433 -0.526625 -0.982191 0.315657 -0.745981 0.300741 0.556848 0.938882 -0.208883 -0.704739 -0.547082 -0.814018 0.805738 0.0375817 -0.364283 -0.510952 0.426789 -0.963923 -0.658991 0.330836 0.359534 0.689452 -0.378799 -0.474989 0.865598 0.107504 0.826983 -0.894276 -0.0963179 -0.815774 -0.707172 0.563081 -0.298857 -0.89513 -0.449269 -0.859281 0.0691376 -0.00415641 0.143573 -0.964039 -0.605926 0.201431 -0.554047 0.130734 -0.753381 -0.0759348 -0.235399 -0.352652 0.977289 -0.707228 -0.374127 0.0510125 -0.632463 0.197433 0.264039 -0.293425 0.403052 0.0937283 -0.708638 -0.0802149 -0.172349 -0.664602 0.030537 -0.763617 -0.106731 0.166449 -0.491395 -0.88051 -0.731405 -0.73207 0.105571 0.335232 0.244451 0.493796 -0.778564 0.681936 -0.70194 0.495627 -0.00319785 0.253967 0.415947 0.815285 0.490392 0.0177522 0.36077 -0.539974 0.650985 -0.887098 0.541013 0.799752 -0.571319 -0.152323 -0.0891973 0.860197 -0.667391 -0.836423 0.238134 0.318155 -0.764553 0.15012 -0.934366 0.111533 0.529319 0.266644 -0.521246 -0.586264 0.656286 0.200698 -0.87042 0.850458 
-0.36013 -0.705843 0.897551 -0.862095 0.770663 0.530107 -0.486585 -0.0287154 -0.618813 -0.386123 0.436931 -0.492906 -0.278941 -0.159924 0.163341 -0.731252 -0.148773 -0.42747 -0.482439 -0.354604 0.172452 0.393823 0.980678 0.248345 -0.0639204 -0.310877 -0.914304 -0.705627 0.532868 -0.0856535 0.420401 -0.318215 -0.235876 -0.362503 -0.58276 -0.440596 0.900257 0.618487 0.902045 0.667236 0.242749 -0.1242 0.566859 -0.806466 -0.278133 -0.577902 -0.791435 0.345781 -0.454131 -0.573854 -0.76922 -0.280822 0.22167 -0.396153 -0.143235 0.656658 0.457661 -0.0918577 0.148603 -0.421861 -0.217015 0.636163 -0.0086807 0.103587 0.986274 0.312319 -0.85582 0.226997 -0.858935 -0.128721 0.587386 0.194025 0.980463 0.647667 -0.654112 0.34854 -0.0804979 -0.928543 -0.0199859 0.0977646 -0.869888 -0.215648 -0.396511 -0.163293 -0.473057 -0.667382 -0.690633 0.524052 -0.265903 0.970104 0.538218 -0.162643 0.458644 0.421265 0.200091 0.938019 -0.709565 0.344465 -0.576835 -0.861145 0.733795 0.895071 -0.535116 0.299364 -0.595353 -0.0921367 -0.54116 0.715501 -0.571812 -0.447789 0.0107138 0.0662004 0.629079 0.923489 -0.923904 -0.0582659 0.725179 0.0763103 0.546896 -0.313478 -0.621258 0.519616 -0.814935 -0.60479 -0.707237 -0.535162 -0.470516 0.0324277 
-0.987681 0.0453622 0.402357 0.413029 -0.226686 0.0885154 -0.321242 0.888905 -0.175874 0.0875754 -0.119363 -0.133334 -0.944729 -0.0611221 0.721611 0.108165 -0.0779488 -0.0858392 -0.700098 -0.538952 -0.16752 0.491497 0.595408 -0.971532 -0.540942 0.394036 0.556295 -0.345461 -0.17158 0.257594 -0.612082 0.739913 -0.287411 -0.520187 -0.789257 0.955768 -0.408737 0.356571 0.892988 0.450396 -0.189464 -0.313585 -0.421151 -0.277826 0.584278 -0.0448296 0.549037 -0.330916 0.302736 0.0825717 -0.216502 -0.75746 -0.63842 0.0746132 0.0249457 -0.736319 0.678854 -0.502158 0.231075 -0.325893 0.716108 -0.377434 0.465837 -0.675965 -0.94876 0.18398 0.152906 -0.112251 -0.601744 0.485936 -0.86761 0.0809681 0.831454 0.247697 -0.955519 0.600102 -0.0833579 -0.996318 0.875854 0.486856 0.592068 0.883097 0.203756 0.53009 -0.782907 -0.31245 0.652478 0.202582 0.803789 -0.725619 0.5178 0.664166 0.642823 -0.0736779 -0.304431 -0.570149 -0.492374 0.676147 0.00802553 0.885103 -0.0773023 0.779619 -0.947289 0.908326 0.231731 0.705938 0.699216 -0.272217 0.849593 -0.895592 -0.21057 0.957747 0.849591 -0.918883 0.332973 0.276308 -0.0932013 -0.434182 0.710434 0.27153 -0.394599 -0.0202853 -0.935624 0.969347 -0.177722 -0.973155 0.177775 -0.132478 
-0.565497 -0.313722 -0.732027 0.822545 0.512004 -0.751982 -0.567619 0.0280558 -0.467004 -0.944649 -0.707661 0.340541 -0.529836 -0.958735 0.54913 -0.774251 -0.831202 -0.0188437 -0.705263 0.646061 0.343741 -0.751222 0.217131 -0.681199 -0.904143 0.0610548 0.147479 0.681449 -0.891108 -0.858224 -0.165709 0.936528 0.220477 -0.443085 -0.926052 -0.151931 0.490744 -0.0597994 0.951192 0.67549 0.965316 0.0644687 -0.473917 0.87218 0.725877 -0.183134 0.065948 0.387296 -0.716156 -0.430059 -0.00866657 0.341243 -0.737251 -0.976467 0.514086 0.236928 0.0557165 0.428095 0.993378 -0.291315 -0.135059 0.0717524 -0.0565572 -0.55776 -0.26379 0.487467 0.856085 0.219962 0.893234 0.584003 -0.665127 -0.784193 0.0671266 0.197355 0.943965 -0.772151 0.453357 -0.424023 -0.558572 0.0738271 0.812234 -0.776396 -0.894235 0.585625 0.597858 0.206972 0.583676 -0.158393 -0.105388 0.73632 -0.661041 -0.117836 -0.473361 0.213593 -0.137875 0.728542 0.607709 -0.227939 -0.97262 -0.822949 0.697823 0.303914 -0.121128 0.200187 0.546291 -0.483328 0.704544 -0.726625 -0.39046 -0.46717 0.281436 0.0910118 -0.365015 -0.813394 -0.716225 0.406801 -0.891665 -0.210531 -0.402557 0.222243 -0.762268 0.560156 0.539225 0.754852 0.804569 0.396932 -0.757442 -0.336056 
-0.0944796 0.0809635 0.752877 -0.391696 0.767047 -0.247222 0.933578 0.653451 0.547908 0.685099 0.456153 0.566421 -0.157102 -0.410286 0.325018 0.58356 -0.102338 0.0126414 0.463972 -0.0154088 -0.975334 -0.431898 -0.916361 0.72829 0.370075 -0.152556 -0.00795436 0.31122 0.680522 -0.461279 -0.710845 0.826051 -0.568427 0.440007 -0.796325 0.16222 0.437095 0.256153 -0.841629 0.743129 -0.22592 0.957493 0.57918 0.276243 0.822549 0.583725 0.660308 -0.200446 -0.902135 -0.188041 -0.402665 0.409202 -0.543194 0.542427 0.566964 0.962168 -0.842617 0.135229 0.799977 -0.782839 0.818632 0.756696 -0.205043 -0.161846 -0.138934 0.937326 -0.353809 -0.470566 -0.798514 -0.617724 -0.0829059 0.60055 -0.550102 0.438583 -0.732477 -0.745961 0.630904 -0.390022 0.905004 0.405582 0.613939 0.465152 -0.189838 -0.607316 0.835758 0.590225 -0.0923112 0.525861 0.140168 -0.199937 -0.336628 0.29189 -0.202631 0.376884 0.297654 0.67223 0.170823 -0.979373 -0.32562 -0.702351 -0.419331 0.310239 0.193962 -0.0735138 0.453738 -0.0228515 -0.0647257 0.15564 -0.162166 0.481549 -0.613656 0.283138 0.692056 -0.621287 0.0338801 -0.576218 -0.493507 -0.369025 -0.200985 0.0465435 0.255367 -0.0474687 0.19323 -0.377537 0.740091 0.715598 -0.944726 -0.0047096 
0.845987 0.511327 -0.127798 0.100408 -0.442282 0.558642 -0.910641 0.859991 -0.138198 -0.688558 -0.587732 -0.00774962 -0.247932 -0.993996 -0.0925863 -0.0976452 0.876444 0.399923 -0.488563 0.718717 -0.531546 0.29941 0.177517 -0.472482 0.995617 -0.666671 -0.741583 0.209779 -0.239346 -0.685279 0.507748 -0.283651 0.673252 -0.652691 0.215038 0.141369 -0.00971973 0.640014 0.722719 0.730901 0.247409 0.199849 0.867712 -0.356271 0.150919 0.497155 -0.31491 -0.683994 0.119249 0.218394 0.541802 0.062098 -0.318589 -0.53028 -0.417844 -0.696767 -0.561096 -0.347035 -0.620873 0.987187 -0.354493 0.0325761 -0.493918 0.720025 -0.5402 0.856464 0.594774 0.36781 -0.21291 -0.373171 0.113696 0.893166 -0.5514 0.621796 0.529295 -0.142112 -0.476845 -0.341032 0.277196 0.833422 -0.670804 -0.195758 -0.106563 -0.998527 -0.243018 -0.408598 0.692382 0.872011 -0.118773 -0.22299 0.19949 0.823846 0.376062 0.474486 0.684678 -0.617398 -0.60188 0.196645 -0.98602 -0.0318272 -0.918635 0.503082 -0.707111 -0.420587 -0.801689 0.0120103 -0.143137 0.29417 0.109074 -0.790295 -0.484294 0.467223 0.613541 -0.218786 0.85603 -0.70942 0.780892 0.451992 0.631707 -0.893636 0.66375 -0.350821 -0.241163 0.779656 -0.328036 0.704275 0.747245 0.938976 
-0.625891 0.654442 -0.792194 -0.403734 0.438246 -0.401555 -0.932029 -0.617859 -0.364981 -0.240019 0.00520992 -0.436084 0.7343 -0.617184 0.985352 0.804916 0.224619 -0.82656 0.0101675 0.884053 0.28682 0.580119 0.0645189 0.370251 0.801085 -0.17286 0.737396 -0.59429 -0.236948 -0.389762 -0.723969 0.26026 0.186384 0.563831 0.312257 0.098248 -0.746086 0.534596 0.950349 0.508244 0.0504459 -0.156137 -0.190824 0.81562 0.120541 -0.0651378 -0.771339 0.109229 -0.18823 0.410281 -0.408886 -0.142498 -0.964295 -0.907455 0.402311 -0.351232 0.845226 -0.282408 -0.423924 -0.897363 0.0216628 0.0867128 -0.616695 -0.785957 0.424597 0.194007 0.674045 0.680186 -0.113686 -0.721425 -0.983377 0.381394 0.0892001 -0.81363 -0.68277 0.68809 0.730151 -0.353093 -0.428288 -0.234653 0.179431 -0.297918 0.893412 -0.429283 -0.95134 0.830074 -0.952228 -0.103969 0.58657 0.488378 0.164338 0.028965 0.813762 0.903643 -0.473024 -0.119082 0.583728 0.721714 -0.154961 -0.422777 0.380894 -0.31092 0.362978 0.568865 0.914995 0.326564 0.56263 0.114683 -0.523915 0.554083 0.46994 0.278621 0.784413 -0.366976 0.238123 0.140262 -0.618478 -0.758854 -0.0518646 0.312226 -0.412986 0.942517 0.883739 -0.993569 -0.913239 -0.801523 0.795443 -0.99186 
-0.184202 0.111192 0.812156 -0.087595 -0.20911 -0.507634 0.189357 0.515085 -0.962565 0.174785 -0.384594 0.133672 0.629945 -0.521891 0.585328 -0.396633 -0.210985 -0.0199467 0.756119 0.0888501 -0.695945 -0.747414 0.216718 0.373697 0.725734 -0.59065 0.937711 0.100504 -0.835138 -0.156563 0.642272 0.664581 -0.385995 0.580355 0.0242078 0.861859 -0.730994 0.192185 0.0590262 0.054359 -0.389731 -0.21718 -0.141807 0.653418 -0.00552613 -0.878052 0.581399 -0.419008 -0.259528 0.109812 -0.387973 -0.656028 0.13162 0.139198 -0.501935 -0.0247432 0.141181 0.835878 0.597579 -0.491181 0.712529 -0.522096 -0.862282 -0.370764 0.577325 -0.906861 0.394832 -0.0602376 -0.413923 -0.801571 -0.00161022 0.93672 -0.541425 0.264457 0.731164 0.670951 0.673086 0.55187 -0.715207 -0.478823 0.41886 -0.227379 0.442628 -0.759208 -0.00989163 -0.24898 -0.610245 -0.395313 -0.0276889 0.6329 -0.850492 -0.217722 0.744793 -0.26091 0.888255 0.89313 0.837329 0.994391 0.73121 -0.552016 0.270844 0.0706792 -0.0955088 0.783576 -0.437285 0.550297 0.847177 0.505149 0.0395889 -0.628719 -0.875161 -0.83189 0.429733 0.517874 -0.0964968 0.177727 -0.948487 0.77856 -0.747036 0.570618 0.379303 0.951401 0.188153 0.281541 -0.132402 0.712893 -0.405256 0.863722 
0.569694 0.843632 0.917349 -0.111828 0.506368 0.52511 -0.468254 0.0556844 -0.11158 0.673659 0.188087 -0.813555 0.574129 -0.60621 -0.566315 -0.059206 0.924506 0.172752 -0.549294 0.0178816 0.537596 -0.61958 0.715301 0.060595 0.420426 0.107837 0.418235 -0.719973 -0.586878 0.342274 0.600442 -0.366696 0.939502 0.204977 -0.945382 0.961894 0.555321 -0.714955 -0.24158 -0.233413 -0.972311 0.375952 0.61973 -0.192658 -0.011494 0.820655 0.754585 0.314331 0.958665 0.289844 -0.593545 0.292865 0.189073 -0.248873 -0.803434 0.681533 0.528204 -0.480344 0.859472 -0.862048 -0.441018 -0.194644 0.615099 -0.0355272 0.893943 0.496879 -0.947056 0.834565 0.530833 -0.283287 0.793598 0.00224113 -0.33332 -0.117065 0.494212 0.22707 0.365312 -0.198673 0.905516 0.999561 -0.371657 -0.442652 0.347024 0.440741 -0.460919 -0.657602 -0.324012 0.323182 -0.284657 -0.238687 0.393212 0.719149 0.740497 -0.470906 -0.514048 0.387898 -0.604862 0.0784078 -0.201446 0.296481 0.960658 -0.217772 -0.0999069 0.865616 0.40583 0.784392 -0.730605 0.729411 -0.794218 -0.420907 -0.190238 0.66642 0.525268 0.174539 -0.527091 -0.817592 0.732907 -0.0367177 0.886565 0.506044 -0.926347 0.885415 -0.831491 -0.860971 -0.34556 0.166851 0.25902 -0.644405 
-0.517695 -0.902983 -0.431282 -0.549458 -0.739082 0.247118 -0.684009 -0.132071 0.276941 0.543695 -0.110938 -0.540117 0.252329 0.885441 -0.400555 -0.127281 0.79469 0.360415 -0.511353 -0.313688 -0.147037 0.746057 0.987417 -0.489222 -0.347691 0.351397 -0.0701209 -0.522521 -0.0185104 0.895741 0.716448 -0.662588 -0.11511 -0.647277 -0.787829 0.951807 -0.973401 0.0546874 -0.870028 -0.561336 -0.376222 0.831959 0.744004 0.46729 -0.262123 0.499858 -0.883384 0.968532 0.122219 0.1287 -0.938727 0.81159 0.385413 -0.36939 -0.33271 0.135667 0.153587 -0.666327 -0.954265 -0.331249 0.694626 0.575873 0.700194 0.152108 0.473336 -0.633697 -0.547517 -0.111027 -0.0294908 0.348169 -0.318584 -0.43796 -0.798095 0.423614 -0.32414 0.175297 0.221689 -0.0745205 -0.466293 -0.987021 -0.856517 0.510531 0.495325 0.923687 0.40739 -0.998743 0.130571 0.504964 0.921501 -0.335817 -0.0803661 -0.713649 -0.29979 -0.573633 0.952046 -0.956391 -0.0709436 -0.348726 0.957276 0.932655 -0.862311 -0.854011 0.645058 -0.513085 0.583786 -0.306079 -0.267842 0.381556 0.817582 -0.899154 -0.0889781 0.54518 0.847854 -0.11531 -0.0164509 -0.490247 0.416656 0.731308 -0.913346 -0.61015 -0.79817 -0.848187 0.522211 0.79923 0.657951 0.183866 0.22801 0.168755 
0.269262 -0.51401 -0.969651 -0.930909 0.208096 -0.529417 0.0934659 0.882345 -0.419317 0.546971 0.948978 -0.523728 -0.297071 -0.879454 -0.987258 -0.838809 0.13779 -0.160768 -0.0229396 0.453977 -0.00152206 0.418502 -0.228921 0.531319 -0.122059 0.557545 0.653752 -0.396853 0.0993674 0.0682867 -0.305766 0.987956 0.583184 -0.428298 -0.403061 -0.250694 0.586759 -0.340127 -0.514697 -0.515111 0.524022 -0.763206 0.79597 -0.135164 0.290674 -0.637156 -0.683353 0.891088 0.51618 -0.561785 0.0884712 0.934157 0.383741 -0.466228 0.114024 0.40567 0.0896788 -0.769516 0.749715 0.461559 -0.573955 -0.465601 0.640522 -0.743127 0.270452 -0.507478 0.815103 -0.556993 0.623032 -0.705954 -0.976442 0.940685 0.0986845 0.590619 0.529486 -0.930045 0.736013 0.172882 -0.37026 -0.968068 -0.317388 -0.33255 0.835076 -0.884829 0.676562 0.980037 -0.517859 0.345501 0.828541 -0.712582 -0.365962 -0.730539 -0.165146 0.392206 -0.191569 0.306295 -0.0923643 -0.3655 -0.961599 0.398708 -0.917453 0.365687 0.0977194 0.371455 -0.96268 0.245977 0.127518 -0.797983 0.304932 0.992449 0.0938572 -0.542299 -0.420457 -0.619165 -0.308086 0.00185275 -0.860841 -0.156963 -0.0799218 0.75374 0.113086 0.643644 -0.280281 -0.686625 -0.104574 0.425032 -0.492689 -0.629051 
-0.460121 0.750189 0.426972 0.114532 0.940748 -0.849311 -0.362975 -0.514315 -0.096612 0.242532 0.22879 -0.727038 0.669444 -0.653108 -0.782863 0.417328 0.0250715 -0.623544 0.0939898 -0.311799 -0.413912 -0.61355 0.0622121 -0.401019 0.069344 -0.535431 -0.993344 0.870811 -0.280956 -0.0312759 0.346925 0.775086 0.877782 0.884096 -0.996989 -0.396888 -0.492447 -0.556177 0.33098 0.782281 -0.209775 0.31595 0.17715 -0.642854 -0.448857 0.0524677 -0.174793 0.257666 0.58648 0.96294 0.134051 0.995616 -0.683451 -0.758601 0.191969 0.414771 -0.938236 -0.940748 0.852692 -0.812701 0.935814 0.233469 -0.0870851 0.361579 -0.949688 0.600114 0.109155 0.570194 -0.74443 0.362801 -0.399426 0.841162 -0.592774 -0.755605 0.550084 -0.736596 0.0365803 0.806503 0.889372 -0.320844 -0.432901 0.229522 -0.424627 -0.713693 0.953746 -0.38479 0.827626 -0.088674 -0.344513 -0.238 -0.0641296 0.17369 -0.794906 0.00696039 0.983911 0.59218 0.771005 0.275163 0.668331 0.636516 -0.0683725 0.863241 0.493084 -0.73375 -0.129418 0.87693 0.569307 0.337759 0.710973 -0.681641 -0.340697 -0.0929366 0.015172 0.995296 -0.0579595 -0.125399 0.416321 -0.886523 0.210022 -0.155265 0.467934 0.566661 -0.133409 -0.202646 0.133265 -0.210615 0.189761 -0.690484 
-0.957939 -0.0871724 0.892835 -0.120237 -0.828281 -0.926502 0.273818 0.0609084 -0.312145 -0.225382 0.00186408 -0.669784 0.943521 -0.242796 -0.679239 0.0268861 -0.1247 0.17289 -0.241157 0.879285 0.148007 -0.439974 -0.636576 -0.934091 0.724551 -0.467594 -0.844348 -0.960488 -0.921189 -0.420108 -0.761613 -0.429004 -0.262014 0.326595 -0.911329 -0.704425 0.732211 0.26405 -0.112965 -0.598629 0.841247 0.846104 0.466745 0.58857 0.0901585 -0.706821 0.452909 0.0420632 0.957352 0.211312 -0.481559 0.432319 -0.0136888 -0.0673709 -0.30227 -0.250771 -0.708129 0.469749 -0.926465 0.903262 -0.880942 0.00149763 -0.829872 0.3397 -0.658264 0.553825 0.130922 0.413497 -0.362265 -0.586615 0.75403 0.97777 -0.624153 -0.146533 -0.772224 -0.776212 0.200233 -0.688321 -0.613799 -0.117366 -0.578324 0.11429 0.865417 -0.943277 0.344863 0.10629 0.413057 0.252945 -0.749676 0.195324 0.80359 -0.0684963 0.78235 0.962897 -0.588025 -0.943794 -0.341687 -0.737073 0.0211104 0.802322 0.631382 -0.357255 -0.392304 0.551334 0.267141 -0.159851 -0.611848 0.669517 0.57294 -0.599124 0.524681 0.320138 0.5608 -0.635717 -0.490402 -0.182826 -0.755797 -0.687481 -0.499568 -0.239473 -0.828171 0.935203 -0.0432895 0.432531 -0.453364 0.313985 -0.862729 0.115343 
0.566911 0.0690384 0.328076 -0.0329289 0.564222 0.885562 -0.365793 0.119183 -0.888803 -0.109087 0.577167 0.447248 0.888643 -0.573933 -0.0986227 0.447408 -0.409569 0.375138 0.948284 -0.18865 -0.634938 0.589606 -0.497485 0.773449 -0.646901 -0.467629 0.555698 -0.384251 -0.113978 0.378079 0.367501 0.597691 -0.608204 -0.0848703 -0.415208 -0.392442 0.229954 0.8438 -0.254467 -0.827478 0.579228 -0.911317 -0.502739 0.461011 0.213203 -0.699065 0.813079 -0.580521 -0.814136 0.810499 0.0569481 -0.873913 0.141716 -0.187183 0.0190326 -0.11936 -0.0823531 -0.107577 -0.0480533 0.36857 0.553949 0.222191 0.362791 -0.575332 0.397835 0.422004 0.62403 0.073656 -0.0632676 0.661786 0.643126 -0.976645 -0.478374 -0.0255949 -0.172857 0.798253 0.24355 -0.649963 0.0736642 0.0740695 0.886893 0.00532019 -0.58413 0.521109 0.270207 -0.633931 -0.483695 0.53688 -0.659025 -0.23188 0.792567 0.666786 0.676716 -0.439359 -0.299899 -0.400401 0.45384 -0.305856 -0.515536 -0.615145 -0.744323 0.154695 -0.0336043 -0.78669 0.10683 -0.499996 0.569549 0.410554 0.186696 -0.205603 0.436055 0.780809 -0.938018 0.731306 -0.93249 -0.35158 0.991212 -0.70641 -0.626452 -0.77494 -0.41318 -0.319232 0.669002 -0.0900682 0.22318 0.993544 0.489112 0.505708 
-0.559063 -0.17609 0.462072 0.052582 -0.253998 -0.949142 -0.221715 -0.369782 -0.93394 -0.72712 -0.711472 0.293401 -0.808333 0.353451 0.442634 -0.658217 -0.646273 0.0820974 -0.188943 0.433118 -0.578349 -0.303372 -0.780185 -0.576901 0.0219223 0.449898 -0.56288 -0.330044 0.955844 0.86333 -0.0174951 -0.0403637 -0.391761 -0.333763 0.436724 0.0225904 -0.322205 0.704897 -0.800295 -0.557296 -0.471465 0.0862316 -0.704872 -0.776189 0.593163 -0.70213 -0.692993 0.871157 -0.466402 -0.820802 0.787418 0.138698 -0.899786 -0.702177 0.51836 0.0713212 0.696491 -0.0772952 0.898439 0.0594102 0.508327 -0.541966 -0.821864 0.937583 -0.0408536 -0.626276 0.182442 0.296977 -0.713713 0.628952 0.797002 -0.793245 -0.0691488 -0.184866 0.955768 -0.415703 -0.71206 0.404251 0.251779 -0.352305 0.812739 -0.290859 -0.467424 0.0104765 0.078493 -0.767812 -0.611487 0.743578 -0.686607 0.202642 -0.190633 0.0386281 -0.776772 0.785017 -0.225911 -0.883663 0.270128 0.0418626 -0.414373 -0.372425 0.655954 0.617084 -0.663842 0.811812 0.124351 -0.0326334 -0.468506 -0.184909 0.242519 0.0195129 -0.0474931 -0.216871 -0.957635 -0.978792 -0.551315 0.0520339 0.533927 -0.291902 0.000163078 0.740536 0.192661 0.0488571 -0.859255 0.505223 -0.718601 0.472126 -0.978688 -0.815457 
0.607293 0.771968 0.472758 -0.357648 -0.987773 0.500359 -0.4724 0.366374 -0.349229 0.508178 0.945785 -0.188782 -0.859631 0.184099 0.156049 0.721549 -0.930739 -0.930098 -0.158729 0.24679 -0.193115 0.31425 -0.399037 -0.622568 0.506371 0.58528 0.794261 -0.850599 -0.00936586 0.58818 -0.453688 0.865454 -0.313927 -0.175442 -0.647331 0.304766 0.197574 0.634333 -0.758908 -0.969068 0.872683 -0.823115 -0.101044 -0.239882 0.303549 -0.259991 0.326848 -0.667543 0.608894 -0.326672 -0.371116 0.659384 0.268484 0.408033 -0.192092 -0.491561 0.33385 -0.976339 0.665601 0.764116 0.49242 0.101262 -0.0964537 0.902761 0.712207 0.0556078 0.601186 0.127492 0.758325 -0.835353 0.215523 0.300578 -0.182522 0.345352 0.327452 -0.506615 -0.669987 -0.470498 0.34326 -0.832887 -0.333661 0.150996 -0.20337 -0.0436418 0.512493 -0.530147 -0.175041 0.0871813 -0.743915 -0.97873 0.486352 0.121213 -0.778825 0.294489 -0.522897 -0.336785 -0.349854 0.00620782 0.33401 -0.302476 0.287845 -0.188767 -0.607309 0.962389 0.871637 -0.398198 -0.515005 0.314069 0.559698 0.845262 0.323009 0.813215 -0.292059 -0.638732 0.82913 -0.809877 0.397375 0.683635 -0.153223 0.777704 0.866892 -0.140808 -0.566111 -0.623195 -0.0403655 -0.422644 0.618124 0.818123 
0.18917 -0.621724 0.691947 -0.438351 0.642531 -0.975083 -0.211936 -0.00406933 -0.393193 -0.396092 0.876322 0.347395 0.674194 -0.821872 0.802156 -0.17074 0.379229 -0.299441 -0.7073 0.416527 0.568913 -0.278059 0.661748 0.00497973 -0.304815 0.974865 0.559948 -0.947861 -0.695881 0.319633 0.0787531 -0.396675 -0.91528 0.894498 -0.166826 0.163478 -0.41964 -0.884591 0.671705 -0.662174 0.842173 0.395644 -0.414243 -0.178819 0.593366 0.69921 -0.370266 0.944183 0.880932 -0.179422 0.449796 -0.271095 -0.293835 -0.4842 0.0509356 0.0741984 -0.948208 -0.537875 -0.0623261 0.486001 0.212351 0.980354 0.809864 -0.620599 -0.404428 0.778224 -0.396766 -0.454038 0.986896 0.759567 0.0437406 -0.851722 -0.888134 -0.864379 0.388113 -0.982772 0.555987 0.475298 0.329436 0.834736 -0.592585 0.430745 -0.470229 0.85823 0.26479 0.33187 -0.257098 0.953755 -0.240723 0.17523 -0.905903 0.487115 0.941306 0.536572 0.170985 -0.253198 0.495199 0.81074 0.0984225 0.187582 0.685254 -0.928259 0.758294 0.652786 -0.618897 0.201296 -0.818451 0.302491 -0.0412518 0.681396 0.2198 0.185968 -0.441521 -0.635759 0.796772 -0.64457 0.711457 -0.541497 -0.939552 0.957836 0.348184 -0.0632094 -0.359933 0.603569 0.177418 -0.129183 0.813547 -0.712484 
-0.718809 0.975429 0.0421739 0.816271 -0.933248 0.894568 -0.988347 0.860541 -0.881434 -0.265027 -0.30322 -0.225815 0.726393 0.48698 0.679955 0.00806618 -0.43081 -0.622316 0.729621 0.743442 -0.972986 -0.98371 0.781752 0.906388 -0.331976 0.486241 0.253997 0.93568 -0.0232803 0.728628 0.0557129 0.367472 0.101671 0.789859 -0.83898 -0.743269 -0.114415 -0.965357 -0.749887 0.657507 0.724913 -0.387131 -0.505984 -0.0735682 -0.460695 -0.898018 -0.990571 -0.525774 -0.686185 -0.709782 0.693385 -0.270381 -0.300002 -0.139248 -0.348854 0.81487 -0.484547 0.225581 -0.658424 -0.124046 -0.838669 0.496454 -0.0914038 -0.224568 -0.321164 0.191886 -0.975677 -0.204754 0.7065 0.152954 0.694366 0.208853 0.192863 -0.550413 -0.796475 -0.358966 0.854023 -0.442339 -0.395127 -0.894731 0.261796 0.00482535 -0.900712 -0.267933 0.853051 -0.775518 -0.12979 0.622957 0.0381794 -0.319154 -0.022946 0.346615 -0.4369 -0.975307 0.00856972 0.0303562 0.195823 -0.800501 -0.0124344 -0.984948 -0.0177791 -0.813212 0.340442 -0.194662 0.322972 0.184993 -0.830313 0.922055 0.983041 -0.0360241 0.543489 0.412291 -0.624046 -0.344793 -0.931865 0.147431 -0.118297 -0.211528 0.856323 0.211911 -0.416395 -0.342937 0.255763 0.60399 -0.734458 -0.0375203 -0.60309 -0.130205 
-0.349368 0.17963 -0.96617 -0.417873 0.801219 0.079021 0.105178 -0.274935 -0.83449 0.727459 0.402714 0.407683 -0.068631 0.518683 -0.500794 -0.848996 0.926649 0.193633 0.383711 -0.975505 0.687074 -0.343856 0.808294 -0.999189 0.637542 -0.825707 0.341189 0.358678 0.304398 0.00968695 0.808289 0.91552 -0.861273 0.587492 -0.027949 0.261325 0.0871849 -0.682541 0.540605 -0.0567111 0.855547 -0.818149 -0.627572 0.400983 -0.679676 0.692561 -0.132102 -0.242699 0.960714 0.718089 0.925724 0.638833 0.871305 0.0251069 -0.0290218 0.230528 0.490896 0.48471 0.516873 -0.922158 -0.703793 -0.651304 -0.463258 0.0178034 -0.777375 0.664332 -0.579724 0.582729 -0.0652691 -0.976731 0.0759082 -0.211972 -0.610394 -0.888716 -0.651613 0.333302 -0.196021 -0.531889 0.537621 -0.20519 -0.621893 -0.148805 -0.972388 -0.932476 -0.130767 0.198366 -0.0578492 -0.27163 0.719897 -0.698697 0.99757 0.158123 -0.421274 -0.351453 -0.878842 -0.697366 -0.638016 0.858463 0.190482 -0.576673 -0.138696 0.942627 0.740029 -0.334826 0.579501 -0.328633 0.659881 0.623791 0.0460498 -0.0398018 -0.949122 0.112236 0.347638 0.745158 -0.125991 0.466549 -0.718118 0.585441 -0.489081 0.0202706 0.687653 -0.612627 -0.421306 -0.897624 -0.374925 0.629619 0.00387716 -0.835967 
-0.0952955 0.36774 0.608173 -0.43635 0.261593 0.589194 0.58856 -0.0762771 0.010576 -0.249873 0.388358 -0.870719 -0.174745 -0.932368 -0.30475 0.0689447 0.753504 0.14255 -0.159339 -0.0171798 -0.740753 0.158404 0.29895 0.456256 0.29187 -0.547101 0.872677 -0.914997 -0.354676 0.953635 -0.249 -0.947358 -0.254 -0.971337 0.737118 0.733524 0.334286 0.344994 0.320276 0.874869 -0.0686697 -0.131156 -0.346419 -0.270108 0.288895 -0.535624 -0.235449 0.815921 -0.808097 0.316974 -0.612242 0.0563133 0.457337 0.459674 -0.250293 -0.667803 0.237945 -0.865972 -0.387508 -0.852794 -0.905939 -0.10794 -0.139802 0.352715 0.0841547 0.388207 0.590344 -0.0855206 0.65627 -0.0767469 0.11499 0.641786 0.492693 0.695591 0.794396 -0.59374 -0.98355 -0.52748 0.650254 0.822638 0.0707974 -0.107642 0.855613 0.292131 -0.150795 -0.405589 -0.73736 -0.816071 0.293907 -0.305264 -0.575092 0.423407 0.198714 -0.222446 -0.644488 0.0929677 0.508866 0.511922 -0.120877 0.420933 0.612361 -0.044279 -0.19661 -0.421023 -0.139192 0.600266 0.665513 -0.715913 -0.35562 -0.910008 -0.505601 0.356029 -0.221602 -0.457675 -0.147692 -0.257223 0.854159 -0.146223 0.424234 0.105906 -0.0452 0.322472 -0.216709 -0.224339 -0.458585 0.562619 -0.0585929 -0.770545 
-0.547751 -0.043981 0.811985 -0.971972 0.0652212 0.173292 0.517837 -0.719194 0.505151 0.0696578 0.739463 0.160487 -0.698083 -0.678541 -0.240932 0.648919 0.375969 0.908304 -0.131334 0.667946 0.16832 0.948163 -0.222551 -0.412246 -0.610316 0.423531 0.289325 0.677674 -0.328402 0.550808 -0.575607 -0.234389 0.625185 -0.520439 0.985474 0.860856 0.412338 0.157949 0.647923 -0.359282 -0.448687 0.918531 -0.247548 -0.539715 -0.983309 -0.478116 0.301839 -0.983659 -0.350945 -0.339005 0.338619 -0.823439 0.453713 -0.445209 -0.633001 -0.841178 0.324815 -0.835186 -0.965105 -0.526621 -0.921255 0.468876 0.397058 -0.649332 0.682558 -0.244893 0.0804983 0.935947 0.454733 0.70487 0.752913 0.213455 -0.468099 0.6675 0.679079 -0.718218 0.910113 0.268914 -0.366209 -0.876887 0.166998 0.73735 0.637739 0.486052 -0.917607 -0.226814 -0.0576785 0.597267 0.263821 0.0330492 -0.540871 -0.421193 -0.99026 0.699423 -0.797309 -0.372472 -0.132537 0.448004 -0.388842 0.728321 0.890716 0.267262 -0.119501 -0.447404 0.488224 -0.420367 0.885204 -0.377524 0.945674 -0.0497831 -0.704122 -0.183044 -0.42422 0.131233 -0.359819 0.518791 -0.684294 -0.928368 0.921931 0.889252 -0.340486 -0.548358 -0.257502 0.156929 -0.495911 -0.778041 -0.530272 -0.28575 
-0.601979 0.545532 0.749891 -0.57544 0.580333 -0.335461 -0.0887326 0.67082 0.466723 0.207864 -0.434008 -0.372114 -0.124108 0.112567 -0.093308 -0.226999 0.823153 0.737954 0.785081 0.857572 -0.792273 0.270933 -0.433874 -0.118026 0.33733 -0.487377 0.648488 -0.869418 -0.303674 0.151959 -0.0300843 0.374009 -0.0219271 -0.528725 -0.285722 -0.126761 -0.479972 -0.894945 0.66057 0.206989 0.866333 0.460364 -0.663572 -0.655515 0.760505 -0.187863 0.589998 0.0917077 -0.668882 0.0971719 -0.83126 -0.986246 0.17182 -0.216605 -0.481766 0.956096 -0.889973 0.22788 -0.0140661 -0.409078 0.627998 0.756654 -0.910027 -0.822726 0.444853 0.650743 -0.961021 0.123848 -0.483453 0.60631 0.255449 -0.66613 0.349762 0.45062 -0.428924 -0.932533 0.913743 -0.724037 -0.889215 0.968364 -0.70105 -0.549919 -0.491445 0.2803 0.997723 0.731653 0.886526 -0.164567 0.126738 0.0877773 -0.726694 0.445524 -0.0824001 -0.898134 -0.943109 -0.836236 -0.613177 0.338005 0.857461 -0.646105 0.915055 -0.666542 -0.574775 -0.238195 0.650157 -0.809755 0.445098 0.756675 -0.554303 -0.167179 0.217958 -0.783461 0.375454 0.256785 -0.211557 0.365421 -0.364313 0.995376 -0.713812 0.963563 0.607987 0.439034 0.851979 -0.79085 0.19259 0.866324 0.307108 -0.436539 
-0.918934 -0.526378 -0.835906 0.931211 0.864033 -0.197768 0.114953 0.0124518 -0.723927 0.960422 -0.180013 0.527166 0.0703589 0.520841 -0.219359 -0.759948 -0.454351 -0.276697 -0.453697 0.70672 -0.163346 0.637414 -0.989307 0.719657 -0.732643 0.475427 0.506904 -0.458771 -0.568633 0.987749 -0.903902 0.120968 -0.887997 -0.568873 0.947527 -0.919351 0.474281 -0.7629 -0.065377 -0.79115 -0.855668 0.783762 0.694922 -0.448434 -0.835617 -0.208254 -0.118792 -0.53484 0.944783 0.974178 -0.997095 -0.168856 0.0369395 0.842825 -0.645389 0.952058 -0.759151 0.944393 0.416604 -0.1421 -0.267427 -0.652897 0.764407 -0.606348 -0.885065 0.71415 0.713278 0.0635669 0.370209 0.103912 0.440972 -0.584706 0.851958 0.857543 0.72592 0.541619 0.991281 0.462553 0.120661 -0.0528061 0.487824 0.860882 0.85099 0.587899 0.815021 0.0633123 0.0894356 -0.856994 0.509102 0.469936 0.221645 -0.810684 0.826279 -0.734837 -0.405226 -0.641354 0.75634 -0.187003 -0.965608 -0.977269 -0.952607 -0.467449 -0.421289 -0.598203 -0.00222659 0.578035 -0.959376 -0.226998 0.845255 0.200667 0.614511 0.0855442 -0.257594 0.611675 0.420122 0.995934 0.67038 -0.914639 -0.341646 -0.037583 0.342463 -0.216401 0.945573 0.247355 -0.696066 -0.789047 0.480076 0.635717 
0.500419 0.551195 -0.0693902 -0.24035 0.441632 0.507232 -0.954721 0.0116346 -0.457311 -0.0256241 -0.663977 0.538972 0.498372 0.136959 -0.136018 -0.0527909 0.743136 -0.113393 0.207811 0.672502 0.74784 0.949889 0.778906 -0.9322 0.516453 0.0215878 0.826417 -0.409795 0.5778 -0.923447 -0.379768 -0.761647 0.991548 0.943227 0.819751 -0.449796 0.274852 -0.568027 -0.825245 0.101128 -0.345924 0.0486178 -0.880709 -0.0826098 -0.423726 0.440239 -0.899357 0.509995 -0.516035 0.999041 0.883361 0.652859 0.605742 0.708233 -0.720055 0.0405334 -0.75501 0.539036 -0.426833 0.221404 -0.857121 0.369826 -0.33215 -0.448334 0.844955 -0.83593 0.523254 0.325288 -0.880793 0.518176 0.987434 -0.190473 0.712758 -0.682244 -0.477285 0.268465 0.0915501 0.682831 0.34042 -0.560184 0.982114 0.394025 0.373925 0.560999 0.713202 0.79222 0.845752 0.552953 -0.521058 0.57418 0.245894 0.741907 -0.774147 0.916269 -0.261507 0.851077 0.0475167 0.61251 0.455902 0.339039 0.232784 0.397352 0.29086 0.491341 -0.0309959 -0.948628 0.402615 0.748164 0.395696 0.454954 0.407932 0.120449 0.382862 0.759121 0.551416 -0.343991 0.536033 -0.891371 0.721928 -0.553109 -0.101918 -0.937725 -0.347206 0.50098 -0.034403 -0.21173 -0.553439 0.354524 
0.479253 0.802187 0.356836 -0.658472 -0.944672 0.898093 0.256001 0.607663 0.99952 0.932312 -0.624303 -0.6567 0.849909 0.417589 0.426121 -0.189911 0.168452 -0.831214 -0.216694 0.0194528 0.943516 -0.331594 0.893017 0.9289 0.0309036 -0.604186 -0.552085 -0.88893 -0.25107 0.263006 0.337827 -0.148663 -0.573606 -0.600411 0.900486 0.463801 -0.899582 0.71898 -0.105234 -0.662977 -0.654041 -0.469271 0.965477 0.766585 -0.000258565 -0.34549 -0.646875 -0.0322796 -0.523299 0.917401 0.758261 0.0884269 0.1912 -0.498488 -0.0794635 0.457001 0.811822 0.294121 -0.714933 0.122143 0.853753 -0.970567 -0.317817 0.444322 -0.283433 0.34 0.379507 0.37575 -0.768023 -0.165785 -0.353681 -0.31005 0.99713 0.7651 -0.962088 0.193041 0.447039 -0.612843 -0.0541975 -0.897352 0.212986 -0.340518 0.911012 -0.624832 0.452482 0.870276 0.726733 0.207055 -0.033749 0.78111 0.108409 0.0340255 -0.131949 0.336184 0.24036 -0.260984 -0.352006 -0.163233 0.55071 -0.209315 0.0415629 0.547808 -0.983577 -0.978732 0.444465 0.13097 -0.778509 -0.401017 0.106848 -0.206351 -0.13264 0.722243 0.739645 -0.778855 -0.215274 -0.10519 0.0661589 -0.0675465 0.744966 0.646367 -0.506508 -0.886624 0.519135 -0.894393 -0.0619262 -0.794341 -0.495052 -0.334852 
0.143932 -0.932695 0.20128 0.909348 -0.581781 0.00564229 0.829808 0.575283 0.785467 -0.653273 0.449388 0.867777 0.736509 0.509202 0.157083 0.0857108 0.539832 0.952518 0.964066 -0.935511 0.860652 0.981085 -0.902204 0.651356 -0.66742 0.673552 0.394143 0.357722 0.233387 0.527851 -0.40694 0.554022 -0.548333 0.160081 0.487153 -0.41834 0.958398 -0.201553 0.500596 -0.489436 0.0513649 -0.711079 0.898716 0.71718 -0.355513 0.898275 -0.699651 0.965722 0.891379 -0.587471 0.372309 -0.598647 0.546992 -0.711655 -0.782159 0.26091 -0.892434 0.865691 -0.330571 0.0864384 0.771085 -0.37219 0.607331 -0.584438 -0.648772 0.0904175 -0.352824 0.08136 -0.582672 -0.966656 -0.588102 -0.231185 0.48139 0.721058 0.82631 -0.211629 -0.841014 -0.914355 0.43496 0.368352 0.893916 0.0494146 0.511445 -0.144126 -0.331809 -0.717319 0.0210789 0.273354 0.255357 -0.209772 0.36258 -0.120708 -0.746344 0.188629 0.279668 0.384039 0.549489 -0.737537 0.210926 -0.965675 -0.0990064 -0.000706077 0.132931 0.172603 0.939193 -0.984485 -0.232717 0.718485 -0.422254 -0.818134 -0.385095 -0.295265 -0.515583 0.590948 0.0624472 -0.449188 0.497013 -0.695253 0.886969 -0.705865 0.53267 0.583146 0.939331 -0.656343 0.839273 -0.3439 0.06709 -0.416952 
0.279899 0.254899 0.0872023 -0.390022 0.896974 -0.552189 -0.637122 -0.109883 -0.809024 0.740559 0.567982 0.0750253 0.949576 -0.469051 0.667036 0.878865 -0.907073 0.820905 0.945731 0.904486 -0.301614 0.773891 0.786365 0.440491 -0.66623 0.668846 -0.709366 -0.317604 0.0267328 -0.70244 0.0977602 -0.943707 -0.880066 0.73409 -0.151338 0.46636 0.109573 -0.415454 -0.527958 0.610397 0.94671 -0.653376 0.702136 0.793499 0.337119 -0.0500503 0.805796 -0.990555 -0.264827 -0.953253 0.682871 -0.993916 -0.745152 0.237188 0.422345 0.358536 -0.0843669 0.0459899 0.951849 -0.277746 -0.0774758 -0.135359 -0.98571 -0.827558 -0.761805 0.35176 0.0365132 -0.321794 -0.387393 -0.917724 -0.18782 -0.692027 -0.894684 -0.947835 -0.257026 0.169566 -0.10841 -0.0491775 -0.525209 0.811912 -0.187016 0.823612 0.447021 -0.915144 -0.832802 -0.908527 0.392991 0.992169 -0.606519 0.229822 0.623929 0.367304 -0.721065 -0.944191 0.989464 -0.0863494 0.726068 -0.97509 -0.331617 0.520074 0.89022 -0.0739097 -0.200272 0.0235181 -0.732077 -0.021122 -0.998482 0.505496 -0.13454 0.785397 0.170628 -0.260187 -0.96641 -0.453416 -0.554633 0.284316 0.503054 0.823369 0.364427 0.923822 0.673296 0.084756 0.494663 -0.191542 0.757611 -0.834273 0.371009 -0.443092 
0.95422 -0.417014 -0.759475 -0.489518 0.677994 -0.962142 -0.723223 0.79203 -0.350334 -0.0597423 -0.0889043 -0.214794 -0.0419168 -0.496851 -0.572249 0.216383 0.748056 0.57439 -0.229876 0.470983 -0.186352 -0.0120253 -0.108966 0.610599 0.332287 0.752245 0.986043 0.419467 -0.0147184 0.628527 -0.351855 0.381856 -0.149812 0.107831 0.312564 -0.743189 -0.769938 -0.351807 -0.822797 -0.75363 -0.256906 0.17357 -0.805454 0.738413 0.510271 0.12519 0.0643169 0.973951 -0.811307 0.363941 0.760746 -0.133569 -0.88961 0.316764 -0.141042 -0.490831 0.596034 -0.463708 0.4611 -0.29949 0.479118 0.537298 0.37325 -0.793873 -0.62365 0.321724 -0.780849 0.272088 0.981376 -0.0131654 0.729155 0.910091 -0.0928367 -0.305853 -0.466089 0.4406 -0.829898 -0.093771 -0.0101983 0.59745 -0.665284 0.567285 0.364241 -0.199729 -0.847179 -0.532964 0.475112 -0.792596 0.832592 -0.622872 -0.610681 0.28556 -0.588707 -0.397153 -0.950065 0.255057 0.741249 0.178542 0.751416 -0.954051 -0.74264 0.453547 0.773049 0.627884 0.847944 -0.608875 0.640087 -0.0666203 0.311349 0.834699 0.788757 0.631668 0.440262 -0.517399 0.0802075 0.0461093 0.960079 0.0556159 0.736989 0.571192 0.0218755 -0.338264 0.792627 -0.319621 0.135658 0.00591886 -0.521313 0.284516 
-0.141938 0.44239 -0.746054 -0.937625 -0.66737 -0.491249 -0.419258 -0.464715 -0.459135 -0.683641 0.0415878 0.967286 -0.821208 -0.0446734 -0.825764 -0.610639 0.99596 -0.903677 -0.102057 0.722409 -0.462803 -0.333408 0.418356 -0.698234 0.780706 -0.668475 0.937121 0.197141 -0.647649 0.958416 0.103738 -0.473364 0.162972 -0.924289 -0.526682 0.0586561 -0.166431 0.799363 0.892473 -0.199166 0.614761 0.285221 -0.29125 0.961197 0.832813 -0.907867 -0.516481 -0.491311 0.538614 0.489567 0.158583 -0.700608 0.887323 -0.762129 0.905875 -0.954913 0.782021 -0.577891 -0.60667 -0.310116 -0.123684 -0.76154 0.799721 0.907649 0.850969 0.242083 0.686314 0.886546 0.174706 0.289854 -0.421506 -0.243476 -0.0947344 -0.201673 0.485979 -0.157633 0.662957 0.323862 -0.846935 -0.442809 -0.298351 -0.383953 0.895337 -0.0713936 0.0876044 0.366529 0.258705 0.0560941 0.773668 -0.957222 -0.0297114 0.640004 0.551243 0.737962 0.9348 -0.824541 -0.0624592 0.247956 -0.596622 0.571208 0.300839 0.194656 -0.411269 -0.194318 0.0910684 0.587156 0.336987 -0.261516 0.699151 0.635973 0.801996 -0.860459 0.261427 -0.202941 -0.832738 0.168977 -0.010489 -0.289492 0.509043 -0.508 0.0488654 -0.718114 0.657694 -0.132221 -0.231395 0.945671 -0.105491 -0.990098 
-0.581728 0.904141 -0.105962 -0.911307 -0.344787 -0.843349 -0.160185 -0.222103 -0.878536 0.453778 0.640308 -0.341785 -0.382989 -0.901887 -0.0193565 0.674038 0.561648 -0.385025 0.880365 0.301725 -0.911184 -0.266636 0.648613 -0.767771 0.0647273 -0.128451 -0.875558 0.491341 -0.0357857 0.550245 -0.0278423 0.0542835 0.342146 0.451932 -0.383373 0.655242 0.653461 0.727069 -0.151855 -0.226811 -0.0147587 -0.049503 0.00340748 -0.729627 -0.845341 0.350985 -0.997585 -0.40647 0.464181 -0.51663 0.992856 0.927389 0.625116 0.321775 0.0743228 -0.856877 0.463722 -0.23055 -0.860347 0.142463 0.378288 -0.11597 0.893584 0.463954 -0.324895 -0.505628 -0.0887593 0.222823 0.980654 -0.151989 -0.48486 0.965682 0.214148 -0.815355 0.332569 -0.511862 -0.867596 0.312034 0.353111 0.73923 0.230976 0.0200195 0.467659 -0.0510693 -0.322245 0.0339421 0.465128 -0.601568 -0.547275 -0.0490317 -0.0759155 0.088863 -0.479014 -0.783002 0.0850383 -0.761946 -0.0319795 0.520076 0.920383 0.872726 -0.0973606 -0.338874 0.552856 -0.152418 0.311468 0.850114 -0.126192 -0.908182 0.187634 -0.429489 -0.425966 0.787498 -0.513492 -0.251139 -0.88722 0.492179 0.048345 0.533805 -0.335759 0.906789 0.410645 -0.289291 -0.115193 -0.0507643 0.803699 -0.239411 0.215742 -0.0284633 
-0.382994 -0.978273 0.171831 -0.0339063 0.13636 -0.193262 -0.161293 -0.853729 -0.63082 -0.199557 0.0459483 0.251952 0.560936 -0.350229 -0.299357 0.705783 0.0903274 0.132257 0.83786 -0.0824679 -0.038092 -0.211179 0.714955 0.243208 -0.406727 0.138218 -0.976724 0.195855 -0.263831 -0.203226 0.383206 0.539067 0.101792 0.809767 -0.251239 -0.565663 0.898134 0.930947 0.426513 0.402506 0.91969 -0.777748 0.383529 -0.0223888 -0.289228 0.94816 -0.274565 -0.612386 -0.363287 0.234754 -0.481735 -0.525078 -0.986921 0.815899 0.820479 -0.203375 -0.129622 -0.561648 0.389784 -0.90539 -0.893689 -0.229536 0.189116 0.478573 -0.629102 0.685021 -0.859334 -0.831161 0.677922 -0.15906 0.676685 -0.952314 0.450391 -0.284429 -0.393106 -0.93613 0.461474 -0.0133811 -0.895597 -0.290336 0.32461 -0.279853 0.518972 0.369289 0.644281 0.42807 0.576624 -0.678534 -0.118465 0.952227 0.0880506 -0.134431 0.610397 0.941294 0.322474 -0.176747 -0.592392 -0.33781 0.430193 0.250921 -0.764939 -0.33794 0.239263 -0.700567 -0.430045 0.226829 0.313288 -0.573106 -0.193998 -0.519741 0.718845 -0.371782 -0.532574 -0.97777 0.617924 -0.557547 -0.689612 -0.309293 -0.282954 0.396809 -0.833716 -0.258948 -0.141615 -0.129835 -0.13307 -0.512155 0.206722 0.37431 
-0.968519 0.105701 0.514766 -0.32308 -0.00244766 0.862075 0.898814 0.366024 -0.237382 0.316344 0.792842 -0.698234 0.774837 0.678184 0.23313 0.209542 -0.223077 0.739027 0.820276 0.378098 0.690668 0.056039 -0.15324 0.496377 0.60956 0.87028 0.796247 0.525689 -0.747277 0.511581 0.147012 0.829519 -0.281668 0.012599 -0.248963 -0.318682 -0.0865536 -0.707016 -0.815085 0.860171 0.887805 -0.655074 0.165252 -0.603442 -0.0577245 -0.176276 -0.668084 -0.485786 -0.60261 -0.0694043 -0.478318 0.903646 -0.428195 -0.670632 0.691014 -0.13033 -0.464225 -0.224558 -0.147544 0.226178 -0.62721 0.489773 -0.385105 -0.456457 0.332132 0.143732 -0.29567 0.67679 0.813612 0.373832 0.989261 0.505361 -0.402215 -0.0256417 -0.960268 0.781388 0.792084 0.560264 0.361908 0.590333 -0.271945 -0.573844 -0.595522 -0.931152 0.126191 0.884875 0.0928326 0.23684 0.565873 0.631669 0.453035 0.152272 -0.771907 0.563125 0.436211 -0.602992 -0.486198 0.47841 0.63361 -0.919458 0.668017 -0.632101 0.271103 0.427603 0.728075 0.755231 -0.826144 -0.99417 0.988288 0.148906 0.66974 0.321818 0.790623 0.00764477 0.48523 -0.735876 0.12829 0.163033 0.0897423 0.298377 0.817832 -0.703438 -0.680755 0.558409 -0.816422 0.400667 0.00333965 0.128505 
-0.208631 -0.465523 -0.0518324 0.853592 0.318895 -0.326136 0.630665 -0.418223 0.931598 -0.631331 -0.774362 -0.700875 0.392796 -0.283103 -0.118555 -0.552674 -0.78708 -0.459415 0.61113 -0.739719 -0.463628 -0.197821 -0.77334 0.473498 0.072004 0.170449 0.738541 0.659517 0.506418 -0.624523 -0.361421 -0.403638 0.0598539 -0.0349271 0.979519 0.772175 -0.058924 -0.33453 -0.4444 0.975522 -0.409003 -0.118531 -0.151197 0.838376 0.582403 0.445597 -0.845975 -0.295288 -0.903098 -0.371094 -0.979476 -0.0518201 -0.93998 -0.240405 -0.480158 -0.0134557 -0.149569 0.199097 0.217467 0.96141 0.421125 -0.147381 0.967692 0.00767469 0.989295 -0.913093 -0.355329 -0.0165707 -0.503565 0.583731 0.773384 0.257517 0.0835598 0.389065 -0.981619 -0.068474 -0.842579 0.779856 -0.958565 -0.594871 -0.00460148 0.662973 0.587298 0.715014 -0.767664 -0.13491 0.561258 -0.938451 -0.549612 0.673974 -0.51645 0.0215825 0.736022 0.328752 -0.663672 -0.332471 0.15864 0.25975 -0.37377 0.0557474 0.946263 -0.152744 0.825857 0.172876 -0.474993 0.793251 0.172191 0.0113847 -0.656096 -0.996661 -0.874492 0.412396 -0.862362 0.285167 0.80374 0.457527 -0.344224 0.625478 0.411254 -0.0557811 0.487374 -0.710832 -0.960603 -0.848323 0.24109 0.006271 -0.602888 -0.735486 
0.692391 -0.989447 0.363152 -0.497577 -0.775875 -0.130518 0.391578 -0.741718 -0.0521041 0.287578 -0.668236 0.950421 -0.277401 -0.28327 -0.923134 0.880945 0.045711 0.26581 -0.528397 -0.76414 -0.901849 0.63089 -0.640372 -0.725763 0.102535 -0.686481 0.306762 -0.25629 0.5295 -0.688805 -0.743205 0.951333 -0.938594 -0.950742 0.880572 -0.2293 0.161108 -0.252416 -0.349613 0.0480735 -0.0276062 0.0213292 0.479276 -0.811143 -0.887203 0.778076 -0.876254 0.796225 0.153561 0.893972 0.989722 0.250539 0.812914 0.646941 -0.864813 -0.908521 0.495813 -0.86437 0.536204 -0.0247445 0.119894 -0.946906 -0.648897 -0.0195403 -0.414357 -0.0910825 -0.823638 -0.882793 0.891101 0.728462 -0.730819 -0.87277 -0.639664 -0.837712 0.582742 0.152194 -0.06775 -0.674609 -0.159406 0.860065 -0.888765 0.530093 -0.731675 0.733911 0.844917 0.526346 0.298125 0.581214 0.471858 0.512603 -0.682904 0.426019 0.100168 -0.470577 -0.993218 0.985183 -0.0321115 0.302568 -0.733434 -0.828054 0.891561 0.457613 -0.90508 0.320113 0.14032 0.365077 -0.141942 0.380186 -0.208395 -0.488726 -0.0186188 -0.925252 -0.706871 -0.375324 -0.0759048 0.268525 -0.897549 0.892774 0.857467 -0.557244 0.395102 0.476286 0.938823 0.801018 0.712759 -0.665183 0.275093 -0.511933 
-0.0511623 0.115409 -0.328554 -0.00292099 0.907197 -0.739811 0.0044384 0.595528 -0.959107 0.296675 0.212953 -0.900683 0.225363 -0.320163 -0.97206 0.588025 0.941931 -0.964306 0.903006 0.820158 0.399075 -0.743669 -0.839363 0.822501 -0.223878 -0.72405 0.886356 0.990752 -0.439269 -0.801102 -0.124745 -0.593327 -0.0536915 -0.392968 -0.617208 0.581949 0.821164 -0.696108 0.51104 -0.944318 0.851753 -0.580878 -0.822847 0.410577 0.559622 -0.429998 -0.970342 -0.540405 -0.579155 0.136535 0.743473 -0.447821 -0.53505 -0.589918 -0.752459 -0.584811 -0.914438 -0.958165 0.115911 0.124144 0.491332 -0.187883 0.244871 -0.461674 0.64762 0.543654 -0.800895 -0.648444 -0.401666 -0.79289 -0.0946708 0.868771 -0.564586 -0.995295 0.0761011 -0.970008 -0.923185 0.0375286 0.744434 -0.297341 0.581486 -0.958247 0.742478 0.820778 0.82455 0.217766 -0.0120885 0.828636 0.882009 -0.0677794 0.831437 -0.0353671 -0.41424 -0.133191 -0.541329 -0.121761 -0.439997 0.977177 -0.587012 0.0906903 0.231096 0.0269511 0.965748 -0.667088 0.248385 0.602166 0.607196 -0.856543 0.0898011 -0.71309 -0.907224 0.293598 0.500108 -0.677368 -0.519515 0.512051 0.0479978 0.698934 0.981669 0.91488 0.391291 0.424529 -0.946968 0.306063 0.00268447 -0.881819 -0.725898 -0.167315 
