0.43311 -0.725171 0.047722 0.0639702 -0.853376 -0.691451 0.775563 0.880119 0.167868 -0.64473 0.0246018 -0.516469 -0.291504 0.698346 -0.906557 -0.503549 
0.846964 0.91535 0.286923 0.322097 -0.517672 -0.508346 0.230148 0.0933084 0.23517 0.502298 0.114003 0.0456567 -0.648576 -0.614337 0.843647 -0.831362 
-0.696526 -0.517947 0.863546 -0.377795 0.397239 0.396957 -0.338012 -0.962914 0.305947 0.0588335 0.814665 0.0690178 -0.0178812 -0.529316 -0.21344 0.71513 
-0.808755 -0.752689 -0.449018 -0.645031 0.958843 -0.717525 0.56281 -0.855244 -0.0907823 0.221835 0.372316 -0.492208 -0.53909 -0.479273 0.859636 -0.104662 
0.9525 0.672472 0.229578 0.517558 0.59447 -0.743936 0.669991 0.544269 -0.468069 -0.831346 -0.430195 -0.287017 0.112661 -0.513806 0.466328 -0.421932 
0.590278 0.803401 0.762638 -0.341918 -0.609638 -0.191841 -0.267153 -0.0403947 -0.913999 0.412709 0.404785 -0.783413 -0.814423 -0.00368857 0.00655425 0.157877 
-0.562034 -0.101329 0.968502 -0.391864 -0.062452 0.370079 -0.080976 -0.963344 -0.922503 -0.505371 0.227875 -0.110127 -0.90389 0.328273 -0.715065 -0.0950989 
-0.327779 -0.980766 0.265208 -0.645106 -0.296757 0.412048 -0.710241 0.986791 0.995785 0.161654 0.910447 -0.116465 0.579929 0.870045 0.85434 0.887935 
-0.304651 -0.271677 -0.0785027 0.605383 0.676232 -0.576435 -0.138231 0.746112 -0.0883205 -0.402593 -0.381561 -0.902623 -0.390451 -0.318453 -0.237514 0.103344 
0.210106 -0.750776 -0.286757 0.475361 -0.615334 0.0747113 -0.326993 0.228032 0.536391 -0.874678 -0.709605 -0.338354 -0.722699 -0.403085 -0.655615 -0.915324 
0.151713 -0.155223 -0.826441 0.0136397 -0.75756 -0.306751 0.42739 -0.850376 -0.267641 -0.247611 0.406011 -0.175674 -0.559858 0.459868 -0.992676 0.0949827 
0.374834 -0.169661 0.516323 -0.156913 0.756936 -0.173649 -0.521022 -0.81505 -0.545119 0.181251 0.282149 0.0714769 -0.686606 0.212926 0.650021 0.904022 
-0.110499 0.841167 -0.51354 0.932962 0.298366 0.63734 -0.227908 -0.450695 -0.830933 0.505549 0.763911 -0.9396 0.150405 -0.142343 -0.35309 -0.376743 
0.0732193 0.596083 0.371851 -0.301563 -0.364081 0.884503 -0.166901 0.8939 -0.216557 0.331253 -0.635396 0.902107 -0.279115 0.912091 -0.490884 -0.283181 
0.581172 -0.240796 0.94469 -0.592333 0.662306 -0.618936 -0.456166 -0.781881 0.921794 0.595766 -0.96315 0.334394 0.155938 0.849074 0.390372 0.985356 
0.879908 0.619705 -0.616362 0.795732 -0.140278 0.353743 -0.638368 0.946236 -0.611589 -0.971587 0.544046 -0.214927 -0.284344 -0.966985 -0.120375 0.863284 
-0.786342 -0.0495952 0.452597 0.794577 0.448855 -0.089956 0.108788 0.392841 0.479388 -0.918007 -0.948554 -0.339328 0.921457 0.928817 0.62906 0.610278 
0.933814 0.61674 -0.453101 0.731469 -0.199741 0.960981 -0.787227 -0.922546 0.77537 -0.357931 0.249553 0.231686 -0.0463796 0.497793 0.410582 0.647011 
0.320945 0.118685 0.746969 0.299818 -0.96519 0.0436578 -0.244393 0.488617 0.190958 -0.568262 -0.7816 -0.355383 -0.925979 -0.931472 0.756503 0.545354 
-0.229936 -0.535973 -0.10125 0.29601 -0.952239 -0.287701 0.605456 -0.102166 0.893841 0.785299 0.527904 0.484233 0.498883 0.718494 -0.266697 -0.373057 
0.0262887 -0.165243 0.766027 0.623735 -0.878761 0.665924 0.192376 -0.739253 -0.625738 -0.786053 0.799889 -0.261585 -0.45721 -0.335301 0.604431 0.665249 
0.836565 0.13936 0.231127 0.54933 0.586956 0.965747 -0.68991 0.684194 -0.742953 -0.816589 -0.405807 -0.395186 0.104809 -0.476738 -0.534721 0.935624 
-0.969426 0.862344 -0.582898 -0.764277 0.804806 0.375906 -0.156724 -0.0566202 0.384491 0.141067 0.916962 -0.626545 -0.337709 0.121283 0.410032 -0.589341 
0.947965 0.452854 -0.875422 0.782448 0.599391 -0.0365247 0.129077 -0.599102 0.89227 0.386972 -0.168427 -0.75632 0.521205 -0.107763 0.835737 0.230541 
0.694021 0.416463 -0.502595 0.883366 0.737087 0.215418 0.532711 -0.727335 -0.318458 -0.316247 0.833195 -0.48475 0.809324 0.307825 -0.380816 -0.373154 
0.40072 0.910009 0.518186 -0.843266 -0.76504 -0.0329126 0.83741 0.343595 0.793584 -0.239312 -0.115614 0.880271 0.716541 0.899055 0.408985 -0.183708 
0.424894 -0.804708 -0.733198 -0.850772 -0.919883 -0.473701 0.505462 -0.697506 -0.99078 -0.0314084 0.118523 0.0206684 -0.625606 -0.567966 0.187503 -0.646011 
0.493978 0.292989 0.265346 -0.325981 -0.756298 0.892331 -0.585849 -0.359885 -0.580204 0.516419 -0.538921 0.353106 0.64824 0.972651 -0.647456 0.201226 
-0.00297147 0.0582551 -0.906766 -0.0160708 -0.101582 0.713117 -0.644185 -0.810657 -0.714251 -0.414371 -0.327971 -0.209409 0.455314 0.468908 0.929721 -0.187471 
-0.819213 -0.516914 0.218677 -0.701832 0.311313 0.2375 -0.333705 -0.588048 0.683295 0.145783 0.180535 0.259624 -0.491006 -0.335928 0.0608711 -0.938333 
-0.563812 0.0200353 0.733161 0.236856 0.832705 -0.718983 0.0608895 -0.630131 -0.605714 -0.242377 0.375356 0.610665 -0.554537 -0.101996 -0.24656 0.0623312 
-0.399472 0.0694349 0.992088 0.0259948 0.895176 -0.782808 -0.652947 -0.0749238 0.755101 0.977762 -0.760598 0.623669 0.00458837 -0.882612 -0.0637843 -0.0227756 
-0.789638 0.55516 0.568137 0.678342 0.890198 -0.448308 -0.704981 -0.623885 0.362912 -0.540225 0.431962 -0.0148548 0.335134 0.603935 0.331872 -0.23257 
-0.806817 -0.173643 -0.415256 0.786619 0.705205 0.379134 0.098595 -0.914079 -0.925662 0.39071 0.66165 0.343817 0.536576 0.234019 -0.847853 0.140464 
0.778902 -0.994247 -0.315132 -0.417407 0.648171 -0.188453 0.66937 0.106835 -0.419243 -0.223553 0.746269 0.538757 0.886753 -0.34306 0.187159 -0.411869 
-0.288378 -0.771189 0.622855 0.329339 -0.805968 0.0885847 0.842211 -0.966585 0.600113 0.098887 -0.00738376 -0.0986128 0.613828 0.609958 -0.433291 -0.315311 
0.573887 -0.6868 0.946325 0.881855 -0.667778 0.662838 0.320547 -0.574566 -0.737132 -0.972619 -0.813714 -0.0875874 -0.081806 -0.913972 0.865527 0.918131 
-0.970681 -0.23509 0.843134 0.547157 0.0652819 -0.807245 0.63012 0.430075 0.271335 0.330003 0.363074 0.192195 0.219936 0.471283 0.855693 -0.370467 
-0.447406 0.454289 -0.768217 0.580527 0.915504 0.866933 0.543185 -0.689578 0.259543 0.146564 -0.697163 0.775173 0.329401 0.249965 -0.833039 -0.887719 
0.109214 -0.444215 0.0723063 -0.747764 0.328987 -0.715096 -0.624521 -0.332996 -0.658391 0.418384 -0.217648 -0.00987494 0.0319395 0.807122 -0.697878 0.760146 
-6.82331 6.59262 -6.17418 -6.7239 6.80549 -5.88587 6.86932 -5.81963 
-6.16343 5.00545 -5.44924 -6.48861 6.00649 -5.68757 4.96671 -5.06461 
9.25356 -9.23876 8.50201 8.75113 -9.2874 9.96105 -8.86243 9.31211 
2.66728 -1.79186 1.44285 1.69835 -2.86048 3.12719 -2.61864 2.14836 
2.84374 -1.26884 2.41034 1.40781 -1.82959 1.04428 -1.64704 1.27065 
-3.98119 3.91105 -4.69494 -4.213 3.54775 -4.45602 5.14167 -4.91449 
9.15292 -9.73593 10.2488 9.15387 -8.85005 9.50013 -10.291 10.2683 
0.123126 0.45807 0.117545 0.251671 -0.391191 -0.174556 -1.24469 -0.509057 
1.21196 -2.44022 1.65827 1.90741 -2.01097 1.14831 -1.53516 1.7021 
-2.24509 2.50037 -1.27636 -1.67705 2.95367 -2.45769 1.41691 -1.64271 
7.62908 -8.64545 8.05951 8.47171 -8.58335 7.35732 -7.36333 8.14052 
-0.431939 0.617199 -0.487498 -0.0963462 1.22462 0.085675 -0.0467355 0.363482 
-1.56699 1.0294 -0.865304 -0.520816 0.635634 -1.68752 0.873182 -1.98025 
-0.822732 0.00243759 -0.458698 -0.996911 0.974145 -0.174021 1.5362 -1.29634 
-1.5452 2.88824 -2.12455 -2.18961 1.91759 -1.22338 2.86526 -1.92814 
-2.7484 3.42247 -3.64378 -2.14984 3.31711 -3.55755 2.92341 -2.28243 
-0.112058 0.634209 -0.847876 -0.246253 -0.766286 -0.964428 0.86455 0.487858 -0.563144 -0.757029 0.60598 0.71283 0.535382 0.171794 -0.655508 0.879075 
0.609628 0.0106289 0.641206 0.754765 -0.671155 -0.105324 -0.185785 -0.487631 0.380768 -0.425292 0.114133 0.235021 -0.00464511 -0.0702952 0.548851 0.541166 
0.182482 -0.129255 -0.437922 0.148088 -1.50578 -0.0442888 -0.117611 0.840927 0.689661 0.0627756 -0.0278131 1.84719 -0.644658 1.30352 1.2525 1.71609 
-0.657215 1.39516 -1.45728 -1.12654 0.251959 -1.53862 0.51995 -1.65998 
